-0.114711694	-0.15766406	0.9719746	0.1619908	-0.15554827	0.9248945	0.24099828	0.64570755	0.47842693	-0.14833274	0.48515743	0.07810018	0.47354424	0.5656816	0.53489363	1.1703864
1.1492035	0.20521384	-0.17605606	-0.07373885	0.28490207	0.5588211	-0.26113185	0.5691767	0.07783931	-0.51575124	0.49890774	1.0887281	0.5675058	-0.2095653	0.27146685	0.7115018
-0.067382604	-0.051293794	0.56348854	0.49864835	0.28925693	-0.22166367	0.41415662	0.06282571	-0.137792	-0.45872536	-0.12393912	0.25005817	0.5160706	0.22654606	-0.30954742	-0.24385597
-0.08289766	0.14148887	0.2713738	-0.034032118	-0.035136495	0.2677065	-0.1289275	0.1889763	0.010013432	0.21663493	-0.16796264	-0.2802258	-0.11199533	0.14124282	0.17884673	0.25915334
-0.428163	-0.5037168	0.76031005	-0.14452232	0.37749642	-0.080816105	0.26135817	-0.28817075	0.65538484	0.1504074	-0.46062842	0.054712694	-0.31637385	-0.44686025	0.26839477	-0.3976236
-0.7155123	0.02767046	0.5363194	1.2878922	0.09736047	-0.8991129	0.9256521	-0.1951358	-0.79377115	-0.94704074	-0.28462362	-0.41072562	0.9683484	1.1886225	-1.3964516	-0.54643196
0.07234527	-0.17297745	-0.033603948	0.032509807	-0.033917293	-0.013660048	0.20166896	-0.08887486	0.1574846	-0.30229044	0.33237386	0.30450228	0.15880162	0.00272198	0.023795856	0.052707322
-1.2193801	-0.51510954	0.3529043	-0.0625127	-0.44699794	-0.11624687	0.38738534	-0.5769818	0.2596304	0.50541127	-0.14878811	-0.98684645	-0.47147158	0.6643357	-0.02325017	-0.16036956
-0.44208091	0.033038568	-0.03773802	0.12567751	-0.44043568	0.028757446	0.0049250377	-0.04841411	-0.124193855	0.13706331	0.2180805	-0.53296113	-0.004131733	0.56086004	-0.07369409	0.2215043
0.3003913	0.38565126	-1.3280267	0.27292398	-1.2673411	0.55406797	-0.49012843	0.31669757	-0.55078596	0.010079662	1.1627828	-0.42178	0.3029882	0.932173	-0.11325188	1.4664088
0.06902557	0.059448436	-0.2577572	0.18951213	-0.23453255	0.05270626	0.06936134	0.06405606	-0.10135087	-0.24583387	0.44915712	0.092344336	0.32140565	0.33977193	-0.11024249	0.39570355
-0.1585581	-0.4013498	-0.12249768	-0.1436413	-0.057560615	-0.041640017	0.2593928	-0.18745148	0.31736755	-0.16910537	0.309811	0.14622769	-0.059649628	-0.14546914	0.15918611	0.09218196
-0.95390826	-0.5887999	0.6829996	-0.7498862	-0.19184884	0.4314648	-0.28692836	-0.367646	1.0009602	1.0973895	-0.68743575	-0.98826003	-1.052441	-0.23597345	0.76095223	-0.013594067
0.4061785	0.17995948	-0.01792227	-0.20174706	-0.10163753	0.5533923	-0.4296994	0.31441948	0.0340691	0.284275	0.075363256	0.09778859	0.0060946257	-0.0021910546	0.38003945	0.6241371
0.91160315	0.30514225	0.55844545	-0.48493043	0.9194741	0.5244463	-0.5300109	0.5732104	0.56583595	0.2510308	-0.5142309	0.8272613	-0.26713392	-0.8433564	0.5798189	0.17797776
0.11268868	-0.1518641	0.24848087	-0.41871077	0.2556949	0.3389864	-0.20709927	0.06910734	0.6238111	0.14141414	-0.11126492	0.3064893	-0.29899475	-0.5771232	0.5041424	0.15022121
-0.40179121	0.57467765	1.0044848	1.3896714	0.6439262	-0.6218325	0.5070284	0.3929937	-0.9773825	-0.72983295	-1.2761714	-0.53035456	1.0063972	0.90086186	-1.3147624	-0.58620006
0.3295919	0.45816213	-0.1558728	-0.43353435	-0.2952215	0.96090597	-0.9758689	0.52514905	-0.039389424	0.71192545	-0.043824185	-0.37624675	-0.38187996	0.08390315	0.602089	0.93899393
0.21384594	0.15046924	0.35354888	-0.005896991	0.43510458	0.07630177	-0.023725044	0.2529476	0.109105624	-0.17263228	-0.22367387	0.37855792	0.21942407	-0.14086458	0.14759097	0.009928298
-0.23957215	-0.3441737	0.16982023	-0.1384806	-0.025411388	0.006889124	0.24414314	-0.22923133	0.38054204	-0.056321424	0.04647507	0.034732167	-0.06993662	-0.082575135	0.15483889	-0.048476618
0.13431695	0.37757117	0.37804282	-0.014005126	0.11557819	0.3234639	-0.39237675	0.35468316	-0.055931613	0.23809105	-0.39232513	-0.18641561	-0.0409299	0.04099475	0.16416675	0.23943797
-0.93808144	-0.4718606	0.5171075	0.80004704	0.3135132	-0.8673831	1.0862174	-0.44358566	-0.021861028	-0.7668533	-0.07534224	0.030978294	0.5605386	0.35924822	-0.94709206	-0.6332771
0.2594534	0.16673318	-0.4016539	0.2783819	-0.23399317	0.049985338	0.053321593	0.19104584	-0.27032748	-0.30246735	0.33526987	0.102875516	0.40688667	0.30469513	-0.22062497	0.3934015
0.071918644	-0.5409305	-0.52253157	-0.49913007	-0.30574715	0.233284	0.34111574	-0.2715378	0.39453253	-0.32239196	0.7270023	0.5627181	-0.03219521	-0.026634678	0.37541127	0.46446526
-0.1849909	-0.4430896	0.027688043	-0.10430303	-0.07386841	-0.1313766	0.30242985	-0.30847788	0.38772023	-0.17951623	0.19808072	0.2875767	-0.09521079	-0.17417893	0.122844964	-0.035328135
0.28192404	0.13896297	0.3837872	-0.23261094	0.32921156	0.31995642	-0.3596821	0.26966912	0.34819466	0.14698562	-0.2584266	0.19649637	-0.18677811	-0.40594596	0.25866055	0.085436784
-0.44984943	0.0041388697	0.35214365	0.24560693	-0.05164034	-0.0478103	0.20251654	-0.0200997	-0.1323013	0.112233855	-0.23655808	-0.48382002	-0.034344386	0.36623377	-0.19098145	-0.15246075
-0.3055116	-0.27179754	0.496829	-0.06095844	0.20534296	-0.06194688	0.1538302	-0.19633049	0.24591799	0.11495492	-0.27372092	-0.0432845	-0.13571982	-0.12153739	0.14613712	-0.2096868
0.60679674	-1.8265662	-1.8192354	-0.9261087	-1.0213645	-0.7016555	1.7183541	-1.4360615	1.2981423	-1.5042018	2.1044219	1.7123696	0.46987814	-1.0535401	0.16130407	0.73040086
0.28937826	-0.047804616	0.15395716	-0.060189873	0.35517853	0.048985805	0.056505002	0.09265867	0.22526786	-0.119559936	-0.029128458	0.42827356	0.0823013	-0.3468518	0.13258354	-0.056014284
-0.3159599	-0.10699706	0.05211753	-0.041449126	-0.23314571	0.09852444	-0.030237617	-0.10066648	0.14033823	0.19130014	0.019310284	-0.35936114	-0.16169412	0.2368046	0.05076342	0.066689074
-0.19008143	-1.7472345	-1.3902348	-0.66618526	-0.8366603	-0.46240467	1.2717434	-1.4791782	1.3382785	-0.69611824	1.7658546	0.6723902	0.034439456	-0.6843572	0.2841455	0.6545211
-0.3892541	-0.22231768	0.14433224	-1.3026506	-0.48420382	1.2236544	-1.1232535	0.007746827	0.9932412	1.5120056	-0.4057381	-0.8725289	-1.3424493	-0.4140572	1.1703107	1.1668546
-0.5001518	-0.31240165	0.07769112	0.140159	-0.23966028	-0.13265824	0.33019394	-0.21648797	0.11166988	0.030316515	0.12889615	-0.28038186	-0.09596447	0.27002445	-0.115717344	-0.09142351
-0.31132063	-0.41490957	-0.036111496	-0.41672856	-0.18198174	0.1917237	0.057189163	-0.3373505	0.4618649	0.28011304	0.13756345	-0.09789232	-0.36824977	-0.1973581	0.30951026	0.19463602
-0.06762993	0.22603317	-0.15556437	0.45062372	-0.2499635	-0.16270912	0.1606739	0.05915119	-0.3753114	-0.34256902	0.17551492	-0.1990888	0.41021666	0.5759663	-0.5746788	0.039958924
-1.5080249	-0.41274163	1.6392796	1.4963764	1.4832053	-1.2800999	1.3944641	-0.46101356	-0.41272116	-1.5171126	-1.5682054	-0.0072899573	1.3667045	0.63712215	-1.4208103	-1.3054423
-0.052804735	0.043571748	0.24713188	-0.051068917	-0.0462961	0.29790375	-0.21141434	0.060877677	-0.01701503	0.26635632	-0.1425464	-0.23234187	-0.1974512	0.04699225	0.13371232	0.16294526
-0.479734	-0.9728618	0.09026755	-0.2756741	0.056845404	-0.2835266	0.6763704	-0.823845	0.83511776	-0.27610528	0.2811948	0.3180065	-0.13596666	-0.51789135	0.10505922	-0.3558935
0.45944586	0.38665858	0.50433666	-0.48925903	0.38052663	0.75458986	-0.72808343	0.5074158	0.16106553	0.6112112	-0.54622835	0.0821888	-0.38266984	-0.28421596	0.60707694	0.39912462
0.025011303	0.006231146	0.23244795	-0.29512915	0.022735482	0.32267535	-0.25427473	0.11197265	0.23142867	0.36625195	-0.21821022	-0.18735492	-0.2879141	-0.16560367	0.30899864	0.14032212
0.110511065	-0.14882152	0.10030037	-0.12396917	0.19255178	-0.040523984	0.12990208	0.0006531486	0.25561944	-0.18717952	0.07826895	0.28851253	0.045855947	-0.15935685	0.07048655	0.05068516
0.34629837	0.109008715	0.30607006	-0.3065769	0.36873686	0.4730423	-0.43445224	0.25862357	0.2590141	0.30665776	-0.31923282	0.2490351	-0.2465752	-0.36171305	0.45837516	0.1506884
0.5950833	0.49502918	0.04375192	-0.10209966	0.09161871	0.5963532	-0.5739503	0.5217122	-0.20798203	0.25994423	-0.18485875	0.025258707	0.022185521	0.0046007326	0.30668896	0.54299486
0.31941006	0.08755233	0.034553576	-0.3953824	-0.022216737	0.44775906	-0.3731189	0.15890214	0.22134091	0.24289703	-0.060172103	0.116807185	-0.18999295	-0.2818528	0.41582915	0.3510287
-0.51796937	-0.11476136	0.16786285	-0.37915194	-0.35987657	0.4894895	-0.37092704	-0.1520809	0.20722376	0.7920174	-0.24126904	-0.7338512	-0.57364535	0.20161128	0.4915583	0.27272648
0.12557043	0.09898422	0.30868214	-0.3928236	0.2062887	0.49285424	-0.40377337	0.23486991	0.31102085	0.3955329	-0.2500668	0.02509303	-0.3339764	-0.37473494	0.51347625	0.19006738
0.23403828	0.8340345	-0.5190658	0.7009966	-0.6705588	0.43468392	-0.6255943	0.6728092	-0.95951766	0.013225789	0.17891929	-0.8218301	0.5211061	1.1102674	-0.6622078	0.7663759
0.44901878	0.7847621	-1.005976	0.5724693	-0.92373425	0.5751966	-0.7218021	0.6456487	-0.8571239	-0.04915451	0.5552104	-0.72894526	0.47417527	0.9835174	-0.5394757	1.19304
0.39146903	0.677065	-0.23125172	0.5495563	-0.25504658	0.12692027	-0.30269107	0.5811121	-0.749311	-0.24119338	0.07201833	-0.33190918	0.5317906	0.7836449	-0.5378545	0.35758233
-0.48621008	-0.073252946	0.8261107	0.35359758	0.45129326	-0.37825987	0.36828673	-0.06471383	0.04637871	-0.037197582	-0.79204416	-0.28758693	0.07269993	0.09839765	-0.31617194	-0.53550464
-0.15391195	-0.39378	0.49060914	-0.024079459	0.2836148	-0.14308591	0.29659456	-0.20442793	0.44856757	-0.08241914	-0.16648053	0.14456584	-0.019466786	-0.3139528	0.08238482	-0.27100357
0.38890645	0.29693028	0.29491314	-0.5796712	0.16307524	0.7419328	-0.7014527	0.42083862	0.29106823	0.6151014	-0.36804464	-0.041838292	-0.41619608	-0.3649628	0.6322544	0.5433048
0.31666887	-0.11469134	0.04110169	-0.6072614	0.007828564	0.47669694	-0.32439086	0.05016277	0.56505847	0.33881283	-0.035783064	0.14167804	-0.44384202	-0.49851942	0.59182775	0.36584532
-1.5600362	-0.57390463	1.4126266	1.1809419	1.1105943	-1.1125106	1.302806	-0.7044416	-0.105427064	-1.0424882	-1.1862776	-0.006462613	0.83132684	0.49996433	-1.1464807	-1.2231834
0.181811	0.42869386	0.21973023	0.05944383	0.08885338	0.37376037	-0.35422125	0.4064194	-0.2577389	0.24226257	-0.35794038	-0.24849038	0.033099625	0.1634522	0.120519444	0.27741727
0.009660347	0.17457025	0.27469045	0.49811846	0.18250266	-0.24171914	0.14663918	0.17564835	-0.23629494	-0.15397313	-0.26845342	-0.10221583	0.3430802	0.25089973	-0.4590618	-0.1918802
0.37459728	0.2061605	-0.9993065	0.14218037	-0.9044897	0.51761454	-0.42613378	0.19641618	-0.35208154	0.034471795	0.7684811	-0.17162824	0.24936204	0.52144843	-0.03454572	1.178243
-1.282772	-0.26443702	1.3935943	1.3467842	1.1869212	-1.1169267	1.2067405	-0.398438	-0.4489013	-1.3146071	-1.3643588	-0.115541294	1.2204857	0.6205687	-1.2589662	-1.1509088
0.06773565	0.42766905	0.14788352	0.13480206	-0.08096113	0.28062868	-0.34881786	0.39224094	-0.27708665	0.16291739	-0.2661982	-0.4171839	0.032358907	0.27450585	-0.061171375	0.24676955
1.1931195	0.54705155	0.8633029	-0.91483885	1.1918929	0.8693382	-0.84307617	0.81120306	0.967309	0.7071041	-0.6990443	0.9640464	-0.75727654	-1.1520131	0.9357542	0.4613761
0.06547599	-1.4317254	-1.4954392	-0.3396152	-0.9574453	-0.76499367	1.29086	-1.230544	0.9311614	-1.0912619	1.7029828	1.0325831	0.41102415	-0.56148905	-0.21997243	0.42948052
-0.62301654	-0.06617679	-0.16490364	-0.68063676	-0.8600339	1.1453687	-1.2800984	-0.0820716	0.27819473	1.2334698	-0.20836689	-1.2696798	-0.8838197	0.43877912	0.7623027	1.1054817
0.8731734	-0.08246095	0.018364046	-0.6148334	0.45370126	0.5444784	-0.24201283	0.32484767	0.5621299	-0.011133974	0.06441637	0.8444081	-0.1634015	-0.71607864	0.60502094	0.46974105
0.24569605	-0.0005217159	0.5600648	-0.19270112	0.72683364	0.21153527	-0.11768017	0.18879123	0.49969754	0.1947064	-0.46941134	0.46281755	-0.25003877	-0.5957063	0.3155739	-0.15237357
0.4064182	0.5898161	1.4386272	-0.13403998	1.3910474	0.39236665	-0.25134826	0.8085378	0.4533387	0.4226778	-1.4160632	0.7034269	-0.13455273	-0.7803089	0.37644458	-0.15977395
0.11090872	-0.057300266	-0.01512389	-0.27600232	-0.07505816	0.29280967	-0.3093347	0.060170524	0.13552059	0.2677933	0.03417388	-0.07019485	-0.2438343	-0.06815199	0.26254752	0.24572237
0.5029914	1.3252782	-1.0057523	0.7053642	-1.0339826	1.1078544	-1.525613	1.0281017	-1.335153	0.3786475	0.19472471	-1.410861	0.54486895	1.4051924	-0.60588086	1.4889196
-0.25658113	-0.3618214	-0.6598437	-0.031558126	-0.69513106	-0.18617815	0.3580641	-0.4364199	0.11964397	-0.23385547	0.94583815	-0.056589156	0.08500442	0.3043109	-0.16987792	0.29685995
0.032872953	0.42962423	0.23682474	0.3401871	0.019796122	0.16671832	-0.22980835	0.43157107	-0.3546123	0.0053967563	-0.24690753	-0.29490045	0.24217439	0.39538187	-0.10028582	0.21431494
-0.13239025	0.33553874	0.68463904	0.57552874	0.40171677	-0.24577685	0.18359748	0.23646	-0.41113374	-0.2629842	-0.7165227	-0.25571087	0.38646162	0.36476085	-0.47454125	-0.35182723
0.24551836	-0.3703557	0.14200892	-0.8288137	0.17606184	0.5631689	-0.27032238	0.09036029	1.016326	0.3026342	0.019312417	0.36866835	-0.6044614	-0.75723785	0.7033116	0.49848184
0.17519957	0.25742346	0.012383876	0.044797834	-0.086789615	0.2709445	-0.24664627	0.27907833	-0.10907797	0.23505583	-0.12040295	-0.15823367	0.055561807	0.16573021	0.10766418	0.23365068
-0.19784732	-0.36949655	-0.16089416	-0.4983853	-0.20838456	0.21683384	0.043104973	-0.2597634	0.45644507	0.17614974	0.33041507	0.058358956	-0.2847742	-0.202666	0.40036306	0.2806765
-0.3628768	-0.35313675	0.42218074	0.5281561	0.44290984	-0.59518236	0.7073777	-0.24625035	0.00063088327	-0.69218445	-0.18273187	0.38929304	0.5065953	-0.016858496	-0.60697955	-0.5133893
0.35343572	0.33169964	-0.08711908	-0.22254753	-0.1486443	0.5475776	-0.5893051	0.36863852	-0.1020583	0.37974885	-0.12065764	-0.20718372	-0.14902015	0.08590304	0.29316378	0.6313037
-0.34383714	-0.062190596	-0.041515585	0.1409965	-0.23918375	-0.1158424	0.12573305	-0.11480925	-0.19153765	0.02393836	0.12588966	-0.30509952	0.09743307	0.34256926	-0.1114838	0.075225435
-1.0866884	-0.36431146	0.40100867	-0.19575645	-0.34533393	-0.052564517	0.2635602	-0.39100623	0.27988043	0.53514665	-0.34802166	-0.9107965	-0.50477445	0.5107043	0.11553493	-0.24410327
-1.1217293	-0.61520565	1.2069091	0.8516825	1.1660743	-0.9114934	1.0686533	-0.6270028	0.1820149	-1.1580124	-1.0100005	0.43722448	0.8689345	-0.030378245	-0.7817815	-1.0062963
0.18062288	-0.15122034	0.31114754	-0.33197713	0.32945785	0.24747086	-0.22134295	0.11205564	0.5341201	0.27108157	-0.2925543	0.18186875	-0.3420968	-0.5016001	0.3832615	-0.04992106
0.7402622	-0.0042690234	0.09799377	-0.67068744	0.3288854	0.6339282	-0.5592715	0.29194874	0.5712536	0.292988	-0.12410654	0.66987854	-0.3442498	-0.71644	0.6772443	0.5010733
-0.37082887	0.27600646	0.93553257	1.0665678	0.9073392	-0.73698705	0.6742233	0.17034668	-0.48688236	-1.0446373	-1.0089918	0.18701318	0.99376774	0.38083598	-1.0738775	-0.6938806
0.6380166	0.8284899	-0.11723532	0.6004901	0.023409883	0.16907884	-0.37939036	0.67257357	-0.776087	-0.2794388	-0.10666587	-0.103161275	0.66157436	0.6280902	-0.5168878	0.47516996
0.4162471	0.26028615	0.2199089	-0.03887375	0.23331216	0.27191722	-0.34178144	0.3777317	0.027010176	0.15991056	-0.31002033	0.10600411	-0.05987179	-0.11727991	0.14750421	0.1460426
-0.14522198	0.3456229	-0.06325564	0.32581952	-0.334327	0.077338465	-0.13453293	0.21300034	-0.5052509	0.11268712	-0.019362392	-0.6349334	0.14446248	0.7980632	-0.32770842	0.25899833
0.17839426	0.4877342	0.11957724	0.333827	0.06751502	0.13266067	-0.23404254	0.39039984	-0.40013686	0.112380624	-0.3033667	-0.263114	0.23971212	0.39095172	-0.1633045	0.1490808
-1.490343	-1.0433668	-0.6625153	-1.0411309	-1.3291794	1.0040232	-0.495671	-1.119493	0.9584139	1.306171	0.7675079	-1.5139054	-1.1649499	1.0166627	1.1325096	0.6898532
-0.21986483	-0.63299567	0.59964585	0.073342174	0.7764467	-0.37160832	0.57726	-0.3568233	0.7376027	-0.3971647	-0.22432522	0.7151896	0.07342389	-0.6802988	-0.027716987	-0.60168064
0.14374556	0.34482926	0.099200755	-0.20478542	-0.14380535	0.65208066	-0.7144492	0.30309087	-0.051493723	0.64855427	-0.269848	-0.5243442	-0.24183416	0.11031224	0.36137807	0.3976383
0.29797843	0.61407715	-0.23624	0.7841001	-0.23963636	-0.0630685	-0.046308033	0.53213996	-0.87972975	-0.46408093	0.109052904	-0.24069053	0.8325799	0.8321335	-0.8139728	0.2571991
-0.5096487	-0.2109612	0.16692555	-0.09960596	-0.23506491	0.00670245	0.04228625	-0.24694994	0.24362345	0.32287198	-0.08059939	-0.5517415	-0.35925606	0.1628103	0.0958088	-0.01380144
-0.29702953	-0.0375752	0.31746167	-1.0867127	-0.384259	1.0903585	-1.0272146	0.1714915	0.91279703	1.3666646	-0.41863143	-0.7328585	-1.1590173	-0.3869438	1.1128479	0.90524554
-0.13097839	0.07622149	0.14625661	-0.29609582	-0.014518115	0.36173502	-0.33346626	0.07432424	0.18331037	0.43262896	-0.17788513	-0.32953295	-0.28278553	-0.022746699	0.30039465	0.2005012
-0.3943658	-1.3739766	-1.316235	-0.69000655	-1.0823559	-0.3220527	0.93885565	-1.242367	0.9939956	-0.34678945	1.4952403	0.40865853	-0.16848098	-0.3502139	0.3099809	0.6433176
-0.15517935	-0.042250805	0.35663325	0.4331618	0.21388897	-0.30542347	0.3143173	-0.06250054	-0.102285504	-0.4205428	-0.1615348	-0.026683109	0.4126654	0.19385856	-0.33075294	-0.19804125
-0.5070051	-0.57695335	0.6837841	0.54459	0.66343856	-0.6592622	0.78773206	-0.52575463	0.26450124	-0.94596964	-0.32247218	0.62404436	0.69692755	-0.20883526	-0.53081363	-0.6635837
-0.03141465	-0.12543404	0.08972738	-0.29986575	-0.034797832	0.32900235	-0.21361777	0.031673342	0.2772358	0.232028	-0.06630205	0.018667378	-0.3219737	-0.22683693	0.42660215	0.13752905
0.3542317	0.04797282	-0.352616	-0.29942754	-0.26820216	0.3543111	-0.2898733	0.11202643	0.098344326	0.1240438	0.25585574	0.09502322	-0.113964975	-0.070834056	0.25772557	0.5527825
-0.3086438	-0.036250953	0.32670313	0.13454802	0.13648641	-0.16923836	0.14865805	-0.08256173	0.009383827	-0.008174098	-0.19645813	-0.17453259	0.059064474	0.16370077	-0.11016684	-0.23591603
-0.4576708	0.123029105	0.9199342	1.1128393	0.8978472	-0.78504336	0.8327583	0.074480906	-0.4746467	-0.96033156	-0.9018394	0.11662434	1.0111603	0.43491206	-1.1300756	-0.7753081
0.6993918	-0.01835899	0.4014769	-0.49689072	0.8183267	0.34941438	-0.20718908	0.2571676	0.81115305	0.117139	-0.30586734	0.9247906	-0.28217357	-0.9127195	0.4435901	0.09808063
0.17543593	0.42590025	0.18032718	0.19037382	-0.0029925418	0.23365068	-0.23623262	0.38287166	-0.28510273	0.094803356	-0.24196851	-0.189405	0.10319341	0.22823296	-0.028518235	0.23157945
0.21907938	0.13427256	-0.049307816	-0.09349555	-0.09494107	0.32590383	-0.26906458	0.17926218	0.010069834	0.14535742	0.1034521	-0.07940475	0.004936987	0.0391868	0.15304112	0.3228818
-0.117513835	-0.2127771	0.09983338	-0.28588066	-0.07314503	0.26499766	-0.14714038	-0.095820025	0.29882118	0.25785032	-0.06519993	-0.062714644	-0.23953937	-0.14806409	0.3363445	0.14484508
0.5500163	0.83237	-0.8854313	0.62240267	-0.87451094	0.87400144	-0.99643856	0.6846782	-0.8849793	-0.045351338	0.14926334	-0.82071775	0.58402175	0.9044439	-0.5907542	1.0566118
0.7667549	0.4826321	-0.74995375	0.5326044	-0.27966383	0.12742566	-0.2529306	0.3639006	-0.42114604	-0.57490045	0.66729206	0.22234888	0.653772	0.45143247	-0.51283556	1.013589
-0.9214591	-0.48461914	-0.5257366	-0.95817566	-1.1769911	1.1349175	-1.0013025	-0.55343693	0.5582291	1.3011569	0.533595	-1.300853	-0.98000103	0.6708086	1.0283505	0.8083149
0.4632257	0.0104907695	0.33385065	-0.10612751	0.53755045	0.139527	-0.046287436	0.27596578	0.25733086	-0.13475548	-0.2547617	0.6328332	0.044867758	-0.39445075	0.17932773	-0.11236643
0.9919604	1.3231536	-0.3392534	1.09018	-0.55000687	0.64734703	-1.0518514	1.1456865	-1.2751771	-0.43532002	-0.5127868	-1.385262	1.0359291	1.1479478	-1.1812745	0.82903004
-1.0764234	-0.74484885	-0.036639836	-0.34083253	-0.6439523	0.07900038	0.22742637	-0.76687676	0.47839227	0.5231427	0.27940497	-0.7964581	-0.59880847	0.39381266	0.3435144	0.017337404
0.41896433	0.2065585	0.60755545	-0.29305953	0.5909899	0.38738337	-0.39003828	0.45553845	0.31043413	0.34311685	-0.52794445	0.35842833	-0.20463356	-0.5169455	0.4182406	0.05503034
-0.29738215	0.25359395	0.256522	0.19489226	-0.30772683	0.16989353	-0.21375325	0.121436246	-0.29824337	0.38705564	-0.29154965	-0.7750168	-0.05959443	0.5004803	-0.007528352	0.20368865
0.16363345	-0.2102783	-0.27581495	0.20449068	-0.07262928	-0.25226337	0.3996921	-0.1520307	0.037668053	-0.5273075	0.4990979	0.4642032	0.42170987	0.0491297	-0.21724103	0.018198125
0.81689024	0.689103	0.21257538	0.17096716	0.45478904	0.36064455	-0.5013409	0.6672245	-0.32342088	0.05436621	-0.3801929	0.39109093	0.3122455	-0.060278967	0.002030811	0.22774738
0.82179487	0.8814709	-0.1770762	0.5598438	-0.13942559	0.43602136	-0.63318205	0.77145857	-0.81202716	-0.15406287	-0.14835958	-0.35566956	0.60080963	0.6673365	-0.43143067	0.6322542
-0.6379908	-0.6623506	1.1898489	0.2792462	1.1000733	-0.57956535	0.6679894	-0.41901743	0.9380831	-0.36890054	-0.907169	0.52864254	0.069102965	-0.7219035	-0.19836356	-0.9054357
0.58871657	0.36319643	0.39988548	-0.21944147	0.5357815	0.33823803	-0.39540908	0.47030458	0.22620441	0.1930614	-0.40803826	0.45890245	-0.19005327	-0.4410122	0.39287874	0.03177954
0.34610906	0.01906807	-0.30071867	0.044316974	-0.22211824	0.14192457	-0.109125696	0.073789515	-0.16141811	-0.17303333	0.3376471	0.13136426	0.104250066	0.12880121	-0.07924009	0.3512158
-0.474595	0.15763044	7.1368646e-05	0.0033288582	-0.5238812	0.16124399	-0.20627652	-0.038425464	-0.23807278	0.48174855	-0.09330515	-0.95984674	-0.20893726	0.7012128	-0.0583212	0.18945523
0.32811448	-0.35229436	-0.73000276	-0.24865	-0.36893934	0.061206765	0.20877689	-0.2457238	0.22887197	-0.3674773	0.75822955	0.5045592	0.07210251	-0.12473062	0.103521176	0.47366917
0.60341805	0.5565148	0.20425598	0.63385594	0.3489973	-0.031390753	-0.12960574	0.52280927	-0.5675746	-0.59642977	-0.18244584	0.25630343	0.71248704	0.3220602	-0.42675298	0.17105977
0.012259274	0.4271577	0.30462873	0.18746081	-0.023021266	0.28096884	-0.3891171	0.39223996	-0.3778043	0.4190914	-0.52356887	-0.5488819	-0.051904503	0.35379362	-0.013199686	0.09414529
-0.83791703	-0.2358694	-0.52777946	-0.39018226	-1.0224417	0.52991617	-0.3246523	-0.4314109	0.10205986	0.7722659	0.54057485	-1.2106797	-0.514538	0.98743445	0.33319804	0.5860762
-0.1949211	0.043705523	0.6264452	0.17133474	0.58369017	-0.17212506	0.25899646	0.13812265	0.13514934	-0.13092668	-0.56201655	0.16566198	0.17328905	-0.166267	-0.13801046	-0.3594047
-0.5901574	-0.23580171	0.3257975	0.10475473	0.021262664	-0.16696835	0.3144674	-0.21034947	0.07672823	0.059507936	-0.3256839	-0.36672384	-0.08268348	0.18707022	-0.13155878	-0.1967096
-0.25751463	0.44018832	-0.20713298	0.07400281	-0.6397224	0.42741787	-0.4507131	0.24503395	-0.42441043	0.5153711	-0.026642857	-0.9132448	-0.10014822	0.8032852	0.033576645	0.5256474
-1.0766656	-0.99040276	-0.72027135	-1.0055882	-1.1974744	0.98696935	-0.6825036	-0.95389616	0.8839778	1.085297	0.8821153	-1.0455096	-1.0044703	0.64718825	1.0706389	0.9598958
-0.009238988	0.11613388	-0.51276207	0.07497652	-0.6531561	0.17647554	-0.15296355	0.093844555	-0.22051375	0.08099701	0.5378231	-0.30807886	0.08934326	0.49727434	-0.18884681	0.5698411
-0.1452811	-0.028151618	-0.55680764	0.056934122	-0.59413624	0.13871999	-0.044733506	-0.06989445	-0.20219336	0.1135645	0.58593637	-0.38343927	0.044987366	0.5392894	-0.07743708	0.5135395
0.021363223	-0.35586137	-0.013537639	-0.14445291	0.14645413	-0.043382704	0.19550464	-0.21353652	0.47158882	-0.18668345	0.1120288	0.41566288	-0.048373614	-0.35382825	0.065898225	-0.058601994
0.1709147	0.55797744	-0.8525549	0.26172167	-0.84366107	0.65868145	-0.83534145	0.4383153	-0.64429605	0.2946834	0.50862044	-0.80242544	0.18280454	0.9404252	-0.26563704	1.0294682
-0.9571043	-0.61902905	-0.62994266	-0.74860114	-1.0995663	1.0215989	-0.98563015	-0.7443175	0.4836752	1.0416534	0.6691733	-1.1575482	-0.8313951	1.0878438	0.867531	0.7909616
-0.8736629	-0.42328933	0.3843448	-0.033893738	-0.31530592	-0.1738284	0.31373736	-0.50395894	0.22600552	0.4186893	-0.29401603	-0.8236406	-0.3944753	0.45976478	-0.056481425	-0.23112978
0.39235654	0.6362903	0.12375642	0.5285103	-0.068205595	0.10673343	-0.23154461	0.46937042	-0.6486761	-0.18526457	-0.20046107	-0.42054835	0.5505253	0.59530413	-0.54651016	0.10329055
0.048870433	-0.5604814	-0.9586221	-0.32659656	-0.7129984	-0.010003819	0.3575173	-0.51644343	0.31710467	-0.2817245	0.9459172	0.3490079	-0.031244798	-0.0643602	0.06132674	0.49132648
0.20865017	-0.22864397	-0.08846056	-0.027034765	0.22880022	-0.19515866	0.23336975	-0.12428239	0.20374961	-0.41441458	0.26882	0.56938154	0.16346775	-0.29004163	-0.07452247	-0.021044903
0.5491056	0.9495211	-0.23326007	0.8455206	-0.24023403	0.058552347	-0.42122805	0.81747144	-0.98770636	-0.31449994	-0.08059683	-0.5483225	0.73709667	1.0380545	-0.88988703	0.43217742
-0.64128834	-0.015652953	0.5652346	0.29545236	0.13482735	-0.34066558	0.28804222	-0.10670407	-0.036125522	0.009230865	-0.5197338	-0.4218828	-0.028747015	0.30754542	-0.33396053	-0.32719874
-0.102299586	-0.33540612	-0.027886221	-0.5551858	-0.0894207	0.3616046	-0.22669129	-0.1224709	0.6908362	0.34175888	0.040707633	-0.029409736	-0.47704205	-0.31632003	0.54538333	0.35647717
-0.5920593	-0.25954038	0.14000097	-0.037274346	-0.2114433	-0.19090924	0.32041204	-0.29511252	0.10878007	0.09596719	0.005976776	-0.3834208	-0.11340313	0.24298404	-0.023650488	-0.095242895
0.28763625	0.2407291	0.5254364	-0.15500918	0.58847773	0.27746242	-0.22288086	0.3580221	0.22531348	0.20694685	-0.5817248	0.33186957	-0.09671508	-0.41052353	0.36058128	-0.07767304
-0.032541044	0.20761886	1.3189081	0.1583574	1.4466633	-0.15823601	0.13291036	0.3978211	0.585418	-0.14197835	-1.3602792	0.9156905	0.038075946	-0.7744198	0.06277305	-0.70849025
0.40102336	0.7172637	0.4755385	0.38447502	0.46068642	0.14547083	-0.32105058	0.635675	-0.46526372	-0.072613105	-0.7201343	-0.099879965	0.32369974	0.26587993	-0.2765951	0.06201631
-0.24752814	-0.08002883	0.16342255	0.0143374	0.04841335	-0.11714087	0.18560813	-0.1036951	0.13403958	0.039264444	-0.14240865	-0.07793614	-0.054912996	0.06569844	0.018219838	-0.061026946
0.33451888	0.28266147	0.26764485	-0.024908533	0.2968835	0.23790342	-0.28582907	0.32980916	-0.12725066	0.019460324	-0.2352266	0.13581762	0.08927805	-0.12020645	0.08701118	0.13725525
0.732757	-0.06153982	-0.121191576	-0.40096587	0.23023754	0.4372235	-0.32062778	0.18143302	0.33688328	-0.01478963	0.22129518	0.7454397	-0.04965094	-0.48696622	0.39455524	0.44251722
-0.21400407	0.27604702	-0.10406397	0.2466987	-0.40470272	0.093950294	-0.20496537	0.22570513	-0.43898576	0.20637652	0.007913614	-0.5917675	0.10620755	0.67665446	-0.1824733	0.33897012
0.9960315	1.3017395	-0.33001238	0.95474565	-0.47596163	0.5376576	-0.8923293	1.0955355	-1.1937169	-0.13762733	-0.24163307	-1.1609043	0.89790696	1.1034216	-0.993361	0.6911146
-0.511986	-0.4110271	-0.28059596	-0.31439212	-0.47980708	0.10812025	0.0973853	-0.42702073	0.30933502	0.31096873	0.4094076	-0.43309122	-0.320162	0.20853008	0.28952247	0.23395462
0.019206049	-0.20288558	0.49850163	-0.28102788	0.42167455	0.19689679	-0.03153106	0.03369136	0.73354834	0.25963613	-0.35557425	0.2606747	-0.36363956	-0.5968537	0.31763524	-0.16675659
0.7297469	0.512611	0.48434663	-0.24971057	0.62805665	0.49437892	-0.5463059	0.6242864	0.12163338	0.21622194	-0.6220159	0.42637712	-0.10292409	-0.4529952	0.28080785	0.25423798
0.662406	0.12381789	-0.56237805	0.16094118	-0.20333345	0.059222497	-0.037453733	0.19276428	-0.10434087	-0.515164	0.5994833	0.59023297	0.41004628	0.02985572	-0.18728924	0.5333193
-0.45027977	0.033244878	0.46965727	-0.008225407	-0.0029031117	0.05982103	0.026371725	-0.064270705	0.018438973	0.3754014	-0.46372238	-0.4840184	-0.23417	0.11694939	0.10517247	-0.089399755
-0.072970115	0.72664464	-0.62043875	0.3030988	-0.7978192	0.6654157	-0.89124703	0.46757394	-0.76176137	0.5354929	0.18199278	-1.0991443	0.062251545	1.1442724	-0.21305989	0.81481683
0.6793674	0.51069707	0.51793754	-0.14577596	0.61971074	0.4878696	-0.42754775	0.5793102	0.031011408	0.25906378	-0.49724635	0.3715811	0.010362436	-0.28729555	0.33294	0.25765446
0.4242319	0.1733051	0.20452322	0.24534024	0.42837638	-0.07445032	0.10984757	0.24998222	-0.042663455	-0.34266248	-0.070554934	0.53397065	0.39155945	-0.11633461	-0.190704	-0.019654362
0.4563301	-0.1537305	0.36805615	-0.47246262	0.5352442	0.3592147	-0.18794453	0.116119236	0.7172996	0.10262667	-0.23469305	0.5705134	-0.2953016	-0.7601253	0.53606725	0.085946634
-0.122776315	-0.37992704	0.21974677	0.12279512	0.3353661	-0.40635288	0.4584137	-0.33690912	0.22194421	-0.43331334	0.07091314	0.4604057	0.23536956	-0.28156236	-0.24944139	-0.3613053
-1.3135885	-1.0684776	-0.9015955	-1.1264434	-1.3962278	1.2912459	-1.1916935	-1.0485086	0.95976037	1.3325788	1.0273585	-1.404591	-1.112961	0.8738051	1.16946	1.0589335
0.633796	0.23193832	0.38103566	-0.92839646	0.32952455	0.879651	-0.8136045	0.46916243	0.8891522	0.8448586	-0.38202807	0.25902042	-0.8025145	-0.79904443	0.8767629	0.7831126
-0.6748315	-0.4166086	0.17525725	-0.27645257	-0.26541808	0.045549918	0.03091015	-0.38121796	0.3748933	0.44454366	-0.09970234	-0.54158556	-0.43173006	0.014134276	0.23302938	-0.06469422
0.4137399	0.117125295	-0.5150217	0.101582006	-0.37228182	0.20649171	-0.18307848	0.17373474	-0.13970216	-0.21258758	0.49590993	0.17776465	0.25936708	0.21154326	-0.03898178	0.53981984
0.6994536	0.33798113	0.4841024	-0.5865794	0.58509153	0.61676985	-0.6747827	0.49794644	0.4524693	0.5811356	-0.47879308	0.44019857	-0.4673199	-0.6023705	0.6687664	0.29502618
0.09091595	-0.28258124	0.13884638	-0.34664539	0.19283439	0.18892375	-0.030586673	-0.07838597	0.5428065	0.049108885	-0.057053566	0.39970556	-0.12648156	-0.48529887	0.38015494	0.053320915
1.3554864	1.303094	0.5069088	-0.37601042	0.5948461	1.1644104	-1.4228406	1.304233	-0.24456505	0.9179669	-0.90173006	0.10722084	-0.22932923	-0.23202173	0.6120829	1.2741798
0.5801173	0.16310559	0.09016401	-0.337199	0.31265017	0.384676	-0.33002967	0.31716743	0.26849347	0.062730685	-0.12942488	0.4774596	-0.14193617	-0.41394132	0.40027213	0.17905162
-0.47298387	0.18358316	0.56844467	0.5836377	0.35172066	-0.44576436	0.41221607	-0.01930397	-0.33972684	-0.3024618	-0.66090554	-0.4024709	0.42289948	0.4791036	-0.64854366	-0.39771757
0.63759	0.62632084	0.8737909	-0.28356543	0.89619696	0.44782874	-0.36673892	0.70874226	0.28295788	0.3374773	-0.907023	0.6930859	-0.29274443	-0.68125457	0.3538975	0.06686085
-0.9111737	-0.551282	0.9755234	0.97328717	0.9555002	-0.82181793	1.0062497	-0.49495935	-0.15926367	-1.1152009	-0.70263964	0.37331018	1.0360062	0.28945294	-0.8241936	-0.8946144
0.11271501	-0.16403572	0.053761575	-0.5091075	0.06115429	0.33268684	-0.24539368	0.100534685	0.4694213	0.27478758	-0.09439704	0.15571883	-0.36054644	-0.41070998	0.42089102	0.22012421
0.33653048	0.14473301	0.15359572	-0.66949165	0.10074665	0.78871584	-0.7630214	0.36812994	0.38023832	0.72571164	-0.30962226	-0.007295399	-0.5653429	-0.53107226	0.70757276	0.6412763
1.0674623	1.2099419	0.6067614	0.0039597796	0.7290488	0.67468214	-0.9173302	1.1010764	-0.33892405	0.3432304	-0.9062722	0.3597446	0.22174457	-0.11028373	0.1872056	0.50636584
-1.2448189	-0.78286654	-0.71989477	-0.7771538	-1.1799859	0.7312824	-0.44796076	-0.8326774	0.45720255	1.1227725	0.7399467	-1.3024056	-0.98736584	0.9536855	0.78378177	0.73330253
1.0036725	1.2799274	-0.88166666	0.99073684	-0.8271708	0.7296069	-1.1045796	1.0809354	-1.3192122	-0.29667038	0.07103473	-1.0403668	0.9094662	1.1374707	-1.0659846	1.1138794
0.021218564	-0.07797239	-0.5226898	0.114234984	-0.53084105	-0.013058482	0.14871334	-0.11017913	-0.19573613	-0.08762841	0.46345744	-0.15732297	0.1727901	0.37605464	-0.19076453	0.32431078
-0.8411868	-0.73268443	0.577018	0.022348925	0.19065537	-0.27212396	0.51265025	-0.5922491	0.56143886	0.07289711	-0.31757063	-0.26347238	-0.25336212	-0.13023718	-0.046493	-0.51296496
0.08310727	0.60814697	-0.023420788	0.43324345	-0.30455115	0.2842874	-0.47120392	0.50137323	-0.6263895	0.22050917	-0.30139178	-0.7064981	0.2669035	0.7509795	-0.33198485	0.39459392
0.052069474	0.069393046	0.1842301	-0.13304555	0.09958323	0.11907202	-0.167373	0.14107156	0.071111195	0.10094573	-0.11349537	0.0038381098	-0.094983794	-0.09829229	0.16848147	0.0696194
-0.55884385	0.05989322	-0.42937663	-0.17955108	-0.80193144	0.50414735	-0.39906332	-0.17472407	-0.18927787	0.61057067	0.24403869	-1.0590609	-0.37691936	1.0259496	0.116389774	0.6233048
0.5313513	0.3951253	-0.26182878	0.014787901	-0.24098879	0.54212	-0.5980759	0.41255105	-0.25984216	0.26104525	0.09642354	-0.19238655	0.050864123	0.21283975	0.11929595	0.6737597
-0.75759244	-0.7517127	0.21045588	-0.0811444	-0.023325304	-0.32683653	0.5403829	-0.62672275	0.5499911	-0.004882048	0.07732166	-0.096024044	-0.1761312	-0.07831885	0.010620116	-0.3539746
-0.42148435	0.021919236	-0.4481763	-0.023184681	-0.69473845	0.09906806	-0.020367047	-0.05341027	-0.19012576	0.1591691	0.31099787	-0.64864343	-0.07770807	0.82447374	-0.07055949	0.52252257
0.1994307	0.1532359	0.021249304	0.31293178	0.06258488	-0.16722682	0.05480986	0.16758259	-0.21634506	-0.33053082	0.0025285585	0.27416983	0.3029791	0.128598	-0.29218775	-0.03948166
0.14767027	0.33808824	0.20176817	-0.072053306	0.023782957	0.36824176	-0.40175968	0.3784994	-0.16763121	0.33300686	-0.3634671	-0.21160862	-0.07782245	-0.005576132	0.1320553	0.2569155
-0.07714357	0.5180198	-0.019485135	0.27247182	-0.34009227	0.36266428	-0.44319457	0.36094236	-0.56207836	0.28146386	-0.15101391	-0.80476063	0.12014113	0.6721761	-0.20881349	0.40444946
-0.90910304	-0.41393456	0.45718196	0.13264278	-0.047416348	-0.37943032	0.49210286	-0.5254511	0.20450534	0.10649148	-0.3488325	-0.5788413	-0.17160407	0.21974751	-0.18991084	-0.4477506
-0.35277373	-0.38008305	-0.35726088	-0.5848711	-0.6865193	0.5796006	-0.3125483	-0.30082843	0.4379925	0.57437176	0.33153278	-0.38201654	-0.6470383	-0.06769875	0.5493863	0.5751078
0.8882467	0.729191	0.86564064	-0.8695486	0.86663485	0.82083887	-0.8756015	0.82307637	0.90395266	0.83525765	-0.8119064	0.68010306	-0.9181658	-0.90404916	0.8329159	0.5602066
0.41255832	0.36580363	0.2082625	0.26886725	0.2803328	0.08488669	-0.16442183	0.36000103	-0.33101958	-0.16932763	-0.28951836	0.13118325	0.30387884	0.112686425	-0.14029981	0.071064524
0.65386134	0.46278134	0.19890983	0.11775106	0.3363425	0.33099735	-0.39482805	0.47879696	-0.18087327	0.025027728	-0.23801045	0.20703809	0.13518135	-0.091097526	0.073404126	0.24339601
0.045811363	-0.17848878	-0.18677804	-0.20407023	-0.18632066	0.08475681	-0.009497418	-0.043891177	0.22037393	0.0790815	0.247002	-0.0013997017	-0.0983443	-0.1117967	0.17988063	0.12620659
0.34007606	0.69599885	0.5391436	0.75949365	0.5158094	-0.177685	-0.024079997	0.56665874	-0.6460283	-0.40450352	-0.7245697	-0.030436177	0.6422355	0.43723434	-0.61303914	-0.1564038
-0.6003815	-0.45805356	0.03905267	-0.13304853	-0.2827421	-0.031191979	0.22832082	-0.3871705	0.4147869	0.2619795	0.11885836	-0.41391844	-0.33077583	0.21155506	0.09979783	0.0044562765
-0.098958775	-0.085911795	0.1920233	-0.040033787	0.034946702	0.028009223	0.070261985	-0.03471793	0.14157657	-0.07165598	0.039202727	0.079516694	0.031009095	-0.018792551	0.12909886	-0.020629115
-0.23856054	-0.1614516	-0.1000068	-0.2853869	-0.33027574	0.29380038	-0.21358173	-0.14972855	0.22216833	0.36581802	0.13500364	-0.28362644	-0.2854823	-0.0068666176	0.3437572	0.16880167
-0.41288692	-0.15803126	0.12898546	-0.1860788	-0.34070277	0.11512505	-0.07141389	-0.19172989	0.124803536	0.35307616	-0.085971035	-0.4278367	-0.3384523	0.16323784	0.22953983	0.11784691
0.4707021	-0.067483686	0.11549949	-0.5758088	0.28556716	0.52747893	-0.42632127	0.20619941	0.5588995	0.32382783	-0.13189895	0.35682842	-0.3321115	-0.6348269	0.54971474	0.3625738
0.13521847	0.091109954	-0.09882893	0.014957626	-0.16925909	0.1755244	-0.1870089	0.098107725	-0.15052879	0.15372397	0.12990274	-0.18177149	-0.019225609	0.12117303	0.036817405	0.26277348
-0.13148394	0.17278726	-0.18315682	0.09515765	-0.31497878	0.13184777	-0.08790979	0.041227207	-0.19914386	0.036655463	0.15289006	-0.31408107	0.085425526	0.4015599	-0.07358345	0.29195186
0.13791023	-0.15939131	-0.041242726	-0.32477093	0.0907172	0.15015686	-0.100863345	-0.07641842	0.3340705	0.056416534	0.114734925	0.24698329	-0.17990851	-0.4130547	0.27671176	0.16530547
0.25228846	0.35481623	0.4883172	0.13775732	0.43021813	0.078318	-0.1447031	0.32220966	-0.14912312	-0.016237723	-0.4963385	0.05053308	0.13294555	-0.009819013	-0.03852761	-0.09498481
0.11740005	0.6276369	0.13011718	0.79738206	0.04991944	-0.12084315	-0.08219112	0.52846754	-0.81904346	-0.24924965	-0.41617945	-0.5109227	0.65862244	0.7415555	-0.73472255	0.11843339
-0.0754424	-0.34621775	0.023619164	0.5154707	0.26320425	-0.5654269	0.7169151	-0.3383301	0.033075165	-0.86797786	0.2867258	0.5947616	0.57800967	-0.060482927	-0.6785204	-0.28885776
-0.44916528	0.00026578415	0.070449494	0.23580506	-0.27319178	-0.03389854	0.12910344	-0.113767385	-0.16552792	0.17109615	-0.12292834	-0.581061	-0.0097050285	0.5525642	-0.14720878	0.047572393
-1.2102166	-0.9325788	-0.9529393	-0.94452393	-1.3131464	1.0344477	-0.64874554	-0.9825372	0.6505946	1.1972393	0.8779775	-1.3976296	-1.0502509	1.057601	0.9231506	0.8754034
-0.8517312	-0.40186203	0.27565393	-0.16160975	-0.2990448	-0.082365714	0.23105833	-0.3901027	0.29223448	0.4074428	-0.17975627	-0.7203121	-0.3938421	0.33980104	0.07921263	-0.17408524
0.0984915	0.23686339	0.21122293	0.37046814	0.091827534	-0.09976484	0.028034324	0.17858654	-0.30722523	-0.30418748	-0.1515534	-0.043312304	0.39661568	0.32846728	-0.30726942	-0.13165456
-0.14999998	-0.22492617	0.22391395	-0.07619407	0.1132884	-0.0156123815	0.09365718	-0.08918053	0.20760855	0.11698568	-0.13685702	-0.05450299	-0.17536458	-0.15143771	0.11327743	-0.055301853
-0.035250846	-0.12425436	-0.0006365356	-0.16677001	-0.014668957	0.1040015	0.028342664	-0.058630534	0.23245305	0.09336177	0.032263312	0.03455325	-0.16697733	-0.1703166	0.11986614	0.027225312
-0.6070231	-0.49277785	-0.018669318	0.116434336	-0.13304493	-0.39592466	0.60385615	-0.42190742	0.21068783	-0.22083375	0.23974591	-0.09784161	0.046119217	0.20851283	-0.2916777	-0.16988769
-0.060927857	0.02486617	0.34097424	-0.27320093	0.1766994	0.24393812	-0.23362544	0.124782406	0.24191111	0.36761156	-0.38174787	-0.09269481	-0.2990172	-0.24188203	0.25986308	0.031546943
-0.7068741	-0.45884097	-0.18345933	-0.32617655	-0.60287654	0.20962094	-0.016249487	-0.5165678	0.23466259	0.57940614	0.24302724	-0.7506136	-0.43711507	0.49990773	0.33608893	0.1916516
0.18733028	0.4893267	-0.3473372	0.35515308	-0.5811381	0.25364938	-0.3713717	0.37293854	-0.5832224	0.1578311	0.20160186	-0.539311	0.26230183	0.6802019	-0.22048914	0.4352459
0.6358964	0.31439784	0.8364854	-0.31692183	0.89386255	0.36873314	-0.32054147	0.63657755	0.6928801	0.24646115	-0.75738204	0.86733395	-0.35818413	-0.8418332	0.4217893	-0.01494592
-0.9531528	-0.44281712	-0.27713162	-0.39799514	-0.79868054	0.37784097	-0.20279807	-0.50207025	0.22502962	0.68449086	0.2797075	-0.9928868	-0.6181969	0.75194585	0.41522026	0.31721818
-0.24374314	-0.79038113	-0.8773763	-0.7400264	-0.940411	0.18980089	0.40723112	-0.6997796	0.47157183	-0.2670869	0.9806131	0.26229343	-0.11730832	0.096730925	0.42946127	0.73780483
-0.18094006	0.051401895	-0.17570108	0.22909692	-0.3782694	-0.025275437	0.036007028	-0.013681778	-0.12067967	-0.07651634	0.31792986	-0.19050439	0.18255445	0.35874307	-0.16004829	0.19506365
0.03830525	-0.061918713	-0.24231607	-0.06379961	-0.27779537	0.17454967	-0.091608405	0.03852525	0.012089403	0.068475366	0.26455277	-0.084753856	-0.0182617	0.10001306	0.108469665	0.35806358
0.5664965	0.650922	-0.66473716	0.46680692	-0.6423297	0.40367693	-0.49786183	0.4960874	-0.7717714	-0.033840086	0.46205047	-0.42841408	0.5006477	0.84043807	-0.53578657	0.6595841
0.39559883	-1.2786908	-1.0344076	-0.8594168	-0.4576549	-0.31559107	0.8813056	-0.9506334	1.2861836	-0.82217544	1.2562025	1.2566353	0.17557503	-0.97283	0.37028438	0.38028622
-0.16575629	-0.35965422	0.62995565	0.017583596	0.6442059	-0.2514849	0.25367597	-0.15549101	0.5709262	-0.25275373	-0.42500585	0.43276647	0.03801737	-0.5478392	-0.015791563	-0.45152718
0.517979	-0.0028593738	-0.082351655	-0.29255036	0.18723322	0.19244085	-0.20146085	0.12335573	0.26490757	-0.036645	0.15193497	0.44824952	0.04101289	-0.40056732	0.24749982	0.27718684
0.24512346	0.39796296	0.6474668	-0.6655116	0.14459425	0.7667821	-0.78511906	0.50535595	0.5446354	0.8488623	-0.68250304	-0.19212644	-0.7043954	-0.50514096	0.7890691	0.49854562
0.26386082	0.26346138	-0.39369372	0.26762065	-0.3561785	0.083289266	-0.18156888	0.24984095	-0.34764087	-0.12503056	0.31328326	-0.13053595	0.25354567	0.37864023	-0.3050729	0.40779728
-0.13341284	0.17733684	0.6141088	0.63678944	0.6077348	-0.3628284	0.33066005	0.15636005	-0.32672492	-0.5235747	-0.66508806	0.0042213444	0.49387243	0.21410482	-0.4862605	-0.40148062
-0.61145043	0.0008876592	-0.5933583	-0.36513337	-0.9449348	0.859335	-0.78711414	-0.120670564	0.030551516	0.8262389	0.43193832	-1.1070472	-0.46668935	0.8291892	0.41247445	0.7798095
-0.6407443	-0.27186948	0.4949713	0.54830223	0.29271862	-0.54183036	0.6194052	-0.26321483	-0.0676462	-0.29198924	-0.47078288	-0.21591665	0.30753738	0.32537106	-0.62080586	-0.5273146
0.06678662	0.38984692	0.37036186	0.03226402	0.16582125	0.21753398	-0.28724453	0.2890524	-0.17755911	0.25207606	-0.5138021	-0.36404815	-0.03370366	0.09591038	0.07678634	-0.0060998388
0.10436077	-0.40988013	-0.17150757	0.1582828	0.16153066	-0.41678998	0.58008313	-0.31462702	0.18197013	-0.7353757	0.36600706	0.7209465	0.47016922	-0.17983106	-0.32190967	-0.20122132
0.51235896	-0.13808258	0.14696667	-0.5368336	0.51301914	0.28043717	-0.17178178	0.22337614	0.7647832	0.01669087	-0.13260163	0.736344	-0.21289505	-0.840134	0.4173633	0.082651034
0.34579	0.5275086	0.61873084	-0.15304637	0.41304317	0.54450995	-0.52962816	0.5031831	-0.039806418	0.4776428	-0.7824795	-0.13823366	-0.15622227	-0.21046461	0.44555563	0.26841146
0.22956544	0.2743251	-0.2623579	0.12808105	-0.24849771	0.29225567	-0.26128727	0.25416535	-0.27206156	-0.025319971	0.14452308	-0.14659962	0.18283902	0.33164826	-0.0870226	0.47152737
0.3615482	-0.3444401	-0.04863842	-0.09077261	0.2545116	-0.18646406	0.28329474	-0.20022742	0.45089737	-0.44584113	0.26464847	0.6413951	0.20492029	-0.48336804	0.062144633	-0.098682396
-0.6654662	-0.18232848	0.73408794	0.5595783	0.4413044	-0.5349197	0.6365397	-0.28565782	-0.083086394	-0.38733205	-0.66893506	-0.14323367	0.28050917	0.1929044	-0.48850694	-0.55512494
-0.19227892	-0.09245994	0.1888018	-0.17087312	-0.06622296	0.094541825	-0.028640784	-0.06646603	0.24475807	0.201544	-0.07847958	-0.18906409	-0.23878163	-0.044332575	0.18666132	0.053204983
0.44381937	0.62709063	-0.08717212	0.74411	0.024845293	-0.010161928	-0.16669653	0.5182728	-0.66179484	-0.66453344	-0.039746247	-0.14853865	0.77800554	0.648115	-0.8411513	0.32516196
0.16797575	-0.15573463	0.13723494	-0.68753797	0.17314234	0.4872929	-0.4309199	0.076368496	0.85514116	0.3856095	-0.04966478	0.16251892	-0.54118437	-0.6093472	0.6510494	0.45382747
1.0889993	1.1956522	1.1143308	-0.8795298	1.1789148	0.9266889	-1.0658444	1.0192252	0.87430066	1.0679847	-1.0584251	0.96942973	-1.0175496	-0.966303	0.90395397	0.53827757
-0.34988168	0.14453606	0.5927679	0.7706105	0.49428537	-0.40216163	0.40585086	0.019759646	-0.3735417	-0.60125947	-0.76599413	-0.0798486	0.6614787	0.36663273	-0.73408014	-0.45372838
-0.96870446	-0.71548283	-0.09155211	-0.4204194	-0.56080157	0.31550562	-0.058523867	-0.6945767	0.48888582	0.5903487	0.27111915	-0.7446263	-0.48824006	0.585709	0.48396805	0.15942153
0.15061148	0.23657817	0.031257205	0.24514087	0.032593895	0.049338054	-0.11719454	0.2376403	-0.31009808	-0.105646886	-0.061817154	-0.0339002	0.2891991	0.2618465	-0.21483503	0.0814239
0.50665545	0.14249292	0.17481303	0.24063562	0.49845472	-0.06775242	0.08003567	0.2892613	-0.098639354	-0.4324185	-0.03498806	0.5762216	0.44183904	-0.14099714	-0.08896212	-0.05970009
-0.23125352	0.17979069	0.46743324	0.6354409	0.33234802	-0.43669054	0.33053213	0.107519194	-0.38298777	-0.50073844	-0.4894557	-0.086129606	0.55244136	0.38951743	-0.60300994	-0.30613598
-0.35992184	-0.26733157	-0.046302374	0.20136853	-0.18757729	-0.19176798	0.38647804	-0.2738482	0.06335897	-0.17832798	0.23336878	-0.12073923	0.10729752	0.22486958	-0.20816371	-0.09169127
0.03264285	0.303828	0.17405792	0.14421149	-0.05661112	0.13853413	-0.1745821	0.24852164	-0.2274887	0.13767157	-0.23095405	-0.28425983	0.02184356	0.29079843	0.0069666635	0.15970293
0.38791943	0.07227322	-0.32982764	0.058749866	-0.027510213	0.030950526	-0.08415537	0.069499694	0.000112076275	-0.25051275	0.29355416	0.3005814	0.2342859	-0.06196948	-0.016217794	0.28964874
0.48573083	0.82815623	-0.31120032	0.73265314	-0.3249447	0.43406445	-0.626232	0.7641724	-0.83935463	-0.36762312	-0.3767343	-0.8060549	0.68331575	0.75886035	-0.7719686	0.63220423
-0.21199921	-0.33491483	-0.04425944	0.41375318	-0.10395837	-0.47949296	0.65935385	-0.3013152	0.0059097647	-0.63968796	0.23576185	0.22708662	0.4317201	0.17571981	-0.45840535	-0.17711796
-0.5369737	-0.13301757	0.4214677	0.36234024	0.14194839	-0.39027455	0.44608662	-0.19684611	-0.04140044	-0.23619056	-0.2888373	-0.17008992	0.22024287	0.2594919	-0.3729652	-0.3460508
0.31112826	0.025192855	0.05705049	-0.3423759	0.098278195	0.2657284	-0.2763684	0.043483324	0.20216458	0.21645612	-0.07096198	0.16979966	-0.17379259	-0.317889	0.3476022	0.23253438
-1.071768	-0.57517564	0.89263064	0.78664845	0.95295763	-0.8757614	1.0486686	-0.4762601	0.08158184	-0.9911573	-0.71247953	0.39409146	0.7270231	-0.016631767	-0.83384496	-0.8179683
0.7008499	0.986504	-0.6505405	0.6876796	-0.5873091	0.5859327	-0.93710107	0.7546319	-0.9778681	-0.15872341	-0.07857517	-0.8115583	0.6151438	0.919417	-0.7126633	0.8317809
0.22325219	-0.1442329	0.22110216	-0.2734034	0.3933659	0.09998223	0.04383924	0.0498471	0.4628521	0.069526106	-0.13722648	0.35023144	-0.12190632	-0.49819428	0.21982557	-0.07118018
-0.85375583	-0.08115144	0.90872085	0.86239314	0.84530663	-0.7824419	0.8576863	-0.14412819	-0.31019205	-0.70425	-0.94843733	-0.14902256	0.6718269	0.44371265	-0.84471804	-0.8156022
0.069615744	0.20884807	-0.018457608	0.09083841	-0.110774465	0.19667765	-0.21049409	0.16363627	-0.2017596	0.17926763	-0.10172919	-0.3341728	0.018755432	0.22599946	-0.0111815715	0.2772227
0.3066385	0.18911892	-0.21458848	0.010540029	-0.1357277	0.28697357	-0.18604858	0.18803598	-0.16781762	0.023576792	0.16321823	-0.0019586699	0.08839077	0.11087186	0.03521338	0.3680523
0.9253658	1.2272657	-0.5870822	1.0831609	-0.4743058	0.35424942	-0.90670747	1.003405	-1.2501639	-0.6204238	-0.22317438	-0.9733754	1.0111746	1.0896295	-1.0772886	0.9397262
0.21812284	0.23754506	-0.043563545	-0.33036414	-0.015192911	0.5313153	-0.5523243	0.22673425	0.089591235	0.5005361	-0.08614388	-0.13667336	-0.29887244	-0.0532397	0.4494742	0.40920603
-0.70309424	-0.41457665	-0.020423556	-0.08936864	-0.30207893	-0.19892743	0.3668272	-0.51461667	0.23843904	0.19225857	0.16307272	-0.3836696	-0.2518418	0.2460409	-0.03699119	-0.07787315
-0.14897269	0.04061368	0.15531652	0.23233224	0.0366085	-0.19301507	0.17822075	-0.0097280415	-0.092141986	-0.2390911	-0.024194665	-0.0028301605	0.20013477	0.17524563	-0.2245463	-0.12143509
0.30469286	0.37113026	-0.3521319	0.47543007	-0.1793892	0.01799819	-0.06723531	0.28624544	-0.39516446	-0.4158648	0.3110767	0.054586854	0.4516717	0.36457947	-0.3766597	0.33162874
0.16400361	0.56356496	-0.9092139	0.18816157	-0.91392565	0.9341124	-1.0361172	0.41788635	-0.5649425	0.45496055	0.3547081	-1.0571692	0.12393918	0.81550235	-0.1914227	0.9999451
0.25312433	-0.018597856	-0.20975412	-0.040019333	-0.14951293	0.051646076	0.007267261	0.021570414	0.07855623	-0.16180752	0.270703	0.23896484	0.13385046	-0.032715008	-0.0025286372	0.2534876
-0.92226213	-0.69642377	-0.67559385	-0.6473061	-1.0714326	0.91112655	-0.76130414	-0.717004	0.44933444	0.9261958	0.7182526	-1.1014684	-0.7988107	0.9121039	0.6822444	0.6968653
-0.14828861	-0.51116425	0.33421573	0.2177638	0.5157257	-0.35634625	0.5751143	-0.38535324	0.32501784	-0.6452836	-0.034196246	0.6303389	0.40593415	-0.25939295	-0.2517056	-0.45120338
0.06926813	0.2052434	0.21975023	0.20283757	0.1742863	-0.045326173	-0.04874761	0.27518857	-0.18854973	-0.05152957	-0.29571265	0.014501053	0.16597131	0.056215283	-0.12524393	-0.039266065
-0.20114098	0.1121086	0.7513688	0.42478535	0.7887613	-0.35543355	0.37931737	0.14128047	-0.12163224	-0.36150953	-0.716519	0.29636523	0.41044307	-0.126703	-0.30808967	-0.5198693
0.4024827	-0.94611895	-0.76713437	-0.37902972	-0.29351535	-0.36681303	0.7943776	-0.60628706	0.71300924	-0.7736993	0.9421267	0.8897304	0.3523237	-0.5281247	0.08134869	0.23564282
0.23729731	0.30708626	-0.25352737	0.16817755	-0.22980675	0.22186951	-0.3211421	0.26926902	-0.3128908	0.018556343	0.12060985	-0.21597074	0.12726384	0.31896356	-0.10868504	0.36971185
-0.1854019	0.032666516	-0.33042547	0.009752934	-0.406755	0.17877987	-0.14547102	-0.07406356	-0.056045968	0.14379194	0.20509057	-0.33609623	-0.07244675	0.33208373	0.04407422	0.35966277
-0.30966482	-0.038446825	0.027680192	0.17504033	-0.12731387	-0.20234577	0.19448718	-0.082705274	-0.034073673	-0.124987125	0.083764575	-0.17837968	0.07568991	0.26168466	-0.19067292	-0.094005935
-0.07935216	0.39188206	0.48716545	0.78841794	0.28552747	-0.34636757	0.19752888	0.24566314	-0.42728266	-0.45787233	-0.5856667	-0.16853066	0.64671177	0.4708717	-0.74282783	-0.13496429
0.44384515	0.5887981	-0.3933575	0.024055053	-0.40671438	0.6087754	-0.5964761	0.47821185	-0.47575185	0.3284693	0.116811104	-0.34162936	0.0096130045	0.41106308	0.044300087	0.66145533
-0.47526455	-0.26305	0.24835275	0.7478076	0.3340462	-0.7088441	0.7724422	-0.25863558	-0.1558129	-0.8128366	-0.07496608	0.29354388	0.68274814	0.30128974	-0.88593155	-0.5298344
-0.09515106	-0.1336353	0.25241166	-0.2255305	0.15071034	0.10021836	-0.07408923	0.011746384	0.29215556	0.19147247	-0.2856168	-0.077730596	-0.20178033	-0.19885658	0.27750912	-0.04664353
-0.59034187	0.0023224428	-0.011264695	0.084902845	-0.40669048	0.0057301167	-0.02587866	-0.12672292	-0.118489794	0.35697582	-0.021397175	-0.7467892	-0.1712827	0.54121804	-0.10932507	0.11105735
-0.021446625	-0.3442669	0.38280714	0.16693117	0.61275697	-0.38913262	0.4693491	-0.21370196	0.35686567	-0.5155428	-0.13096015	0.6493659	0.19500199	-0.45502746	-0.19956188	-0.45677465
-0.02063271	0.31450832	-0.05919966	-0.27059016	-0.4271083	0.65413296	-0.73294485	0.2437374	-0.10800807	0.72263247	-0.2811323	-0.7100604	-0.3449382	0.22853552	0.34203458	0.64479977
0.4508808	0.48226774	-0.34721616	0.11037053	-0.40097606	0.55750215	-0.58300227	0.44280097	-0.42884773	0.1689263	0.1698867	-0.23636007	0.20002277	0.37609023	-0.040696304	0.7668274
-0.60175043	-0.034484226	0.41764435	0.20081063	-0.11708445	-0.1549943	0.17280933	-0.17994522	-0.1201708	0.19871765	-0.4377505	-0.56410605	-0.054119706	0.40986228	-0.114075534	-0.17258354
0.4600227	0.27377632	0.61022246	-0.097988136	0.6841544	0.19706893	-0.24585138	0.4159174	0.20009138	0.040676404	-0.5609604	0.5730883	0.00038686747	-0.4322493	0.1680633	-0.08410139
-0.4401669	-0.17178407	0.50049835	0.23033373	0.3854667	-0.3057049	0.34459257	-0.10145507	0.04456483	-0.07302757	-0.4436822	-0.09205985	0.05031642	0.01555647	-0.22736812	-0.43860722
-0.22848678	-0.11841784	1.2594858	0.16863914	1.2382898	-0.2154339	0.30624846	0.099054046	0.69325066	-0.09169348	-1.1886891	0.8358207	0.0064854175	-0.7886605	0.05750212	-0.7039459
0.10943184	0.36362022	0.11166666	0.22263147	-0.067592435	0.11971894	-0.22732437	0.2887431	-0.3016083	0.048396155	-0.20752883	-0.32267478	0.11507972	0.3926011	-0.16217966	0.13091628
-0.49800536	-0.15881392	0.18210025	0.037728272	-0.16270079	-0.051699318	0.09890624	-0.19065975	0.09315518	0.2041846	-0.099989824	-0.3611243	-0.10203134	0.26560202	-0.010884118	-0.085270904
0.22843884	-0.10190667	0.122424476	-0.01558465	0.37505844	-0.1046858	0.08407107	-0.009660346	0.23019192	-0.18522026	-0.09984938	0.4607856	0.10719448	-0.343792	0.040513087	-0.16305569
0.47028705	0.7074574	0.31462982	0.85619235	0.43601713	-0.22536653	0.02341194	0.6318891	-0.77622205	-0.75064147	-0.44446185	0.0799577	0.8658376	0.53809786	-0.8212651	0.019876728
-0.6159432	-0.39790687	0.45271102	0.51745784	0.3114021	-0.52197224	0.6884675	-0.32861537	0.029415369	-0.50573945	-0.23542748	0.051040035	0.30146596	0.13301851	-0.49497348	-0.5339066
-0.7430296	-0.5369411	0.7145053	0.050125204	0.29700297	-0.33659762	0.47585025	-0.45285833	0.41307843	0.038228117	-0.60547423	-0.20565693	-0.12884924	-0.19614224	-0.05881464	-0.5196266
-1.1306422	-0.43178174	1.2252492	1.1197762	1.1582216	-1.0621767	1.1760689	-0.3673502	-0.07984043	-1.0246128	-1.202377	0.27887562	0.93469393	0.18984883	-0.99442565	-1.0367011
0.15002546	0.49313083	0.06976146	0.6856699	0.004479691	-0.12654434	0.013467393	0.39196342	-0.5712292	-0.49717644	-0.073651016	-0.23127715	0.6176775	0.5771921	-0.7057235	0.037076797
1.1162071	0.5031637	0.7232939	-0.6842275	1.0257394	0.7899767	-0.82142556	0.7592957	0.6323496	0.5686538	-0.700719	0.8482606	-0.560706	-0.9695595	0.732486	0.40686786
-0.3318324	0.014303972	0.549313	0.5204744	0.46744815	-0.4767951	0.45609358	0.006520234	-0.12913483	-0.4597783	-0.5292226	0.101734266	0.388262	0.08344472	-0.61634344	-0.45391312
-0.1896459	-0.18465272	0.028861118	-0.27874777	-0.17727277	0.18758065	-0.018738385	-0.18029174	0.34832925	0.15809445	0.10918293	-0.102026016	-0.27361867	-0.095039375	0.37292954	0.13022222
-0.7138269	-0.17616422	-0.44490924	-0.081759505	-0.7747141	0.10716035	0.104389295	-0.32171437	-0.11699165	0.2758273	0.44478303	-0.67157924	-0.21717055	0.6561875	-0.061233055	0.3286199
-1.0603324	-0.5984515	0.9792087	0.79906195	0.9839299	-0.8162711	0.9648902	-0.5118375	0.0033503443	-0.9635906	-0.90500957	0.2754325	0.8663738	0.1524552	-0.81092584	-0.8194554
0.37232858	0.3939436	-0.05779398	0.36852285	-0.18413442	0.13703497	-0.21880929	0.3396261	-0.4092223	-0.23144713	0.0034558875	-0.22618027	0.36397675	0.38625157	-0.26621878	0.26705375
-0.41814947	-0.13134375	0.010620628	-0.09175429	-0.28710803	0.07718694	-0.0116684465	-0.12962885	0.067553684	0.38146484	-0.025413904	-0.5551656	-0.22873372	0.26039177	0.07481051	0.08592315
0.7664103	0.5415202	0.8301469	-0.60100853	0.8920359	0.75484926	-0.7583089	0.6998237	0.6073123	0.7251699	-0.8414202	0.5993198	-0.6341264	-0.7642725	0.71496946	0.3396595
0.66308624	0.8648217	-0.3286339	0.6196159	-0.30171907	0.32565844	-0.5871377	0.7744404	-0.85865533	-0.1968442	-0.07214785	-0.43650272	0.5750218	0.7235819	-0.55061924	0.57604754
0.23970397	0.39217785	0.4465887	0.33919507	0.54625165	0.06863028	-0.013302902	0.41809493	-0.22727008	-0.22145276	-0.51204306	0.20831874	0.32147798	0.041344218	-0.098879345	-0.08062054
0.43807092	0.34146324	0.39342374	-0.20746666	0.38769105	0.46085396	-0.45127422	0.41216618	0.056651805	0.34512776	-0.42031777	0.13292943	-0.1895744	-0.27919957	0.30753508	0.16445266
0.49038637	0.33639163	0.051257316	-0.16253936	0.12134524	0.36549732	-0.40613002	0.4128834	-0.064926915	0.21158884	-0.18727677	0.2028977	0.03767923	-0.13342841	0.27203074	0.25553003
-0.262199	0.020048672	-0.35042295	-0.08417093	-0.5314107	0.15286319	-0.14998801	-0.11174302	-0.08706894	0.20933026	0.36240447	-0.46383357	-0.09599845	0.43618184	0.028601972	0.3190708
0.0034508659	0.16079861	-0.29978502	0.14835943	-0.48614746	0.13769168	-0.15297154	0.07062214	-0.30253944	0.13509676	0.2988647	-0.35847208	0.05484319	0.47074726	-0.16911593	0.27932256
0.0815511	0.2692525	0.29581764	0.27664995	0.33095998	-0.105461456	-0.037271746	0.24247338	-0.1514265	-0.15346605	-0.35347262	0.0047216048	0.30033797	0.09525241	-0.23862074	-0.1074577
-0.5236209	-0.13241337	0.13078342	0.17631112	-0.11892375	-0.17827463	0.3089038	-0.19814561	0.016967805	-0.051331047	-0.06414318	-0.34099245	0.00686384	0.30246907	-0.23306537	-0.15177934
0.024672437	-0.7421127	-0.19173521	-0.28763252	0.07216465	-0.102463305	0.33521774	-0.430456	0.72039986	-0.20450781	0.32428	0.60356164	-0.0641907	-0.5359649	0.18992114	-0.13076167
-0.019145263	0.0024564376	0.5766883	-0.46406284	0.31887388	0.40372154	-0.30548173	0.19557196	0.5708397	0.48862168	-0.55802256	-0.11404481	-0.52823555	-0.42544273	0.4383685	0.05239748
-0.89718026	-0.15876113	0.4188786	0.1167335	-0.16104856	-0.15100765	0.2920756	-0.24048294	-0.024995761	0.3384122	-0.36340925	-0.85885143	-0.16785435	0.7019802	-0.1132773	-0.2676629
0.30918983	0.19953418	-0.0034854494	-0.018733287	0.02380657	0.26717836	-0.2587907	0.17392714	-0.005355169	0.03644929	-0.017256122	0.1151858	0.06823531	-0.014980479	0.11764365	0.34945786
0.30715975	-1.0422698	-1.0929793	-0.33933628	-0.49284348	-0.62577426	1.1111087	-0.8513983	0.681147	-0.9796833	1.1812283	1.0141925	0.2845483	-0.6259814	-0.13202356	0.3334254
-0.4174794	0.12885158	0.5498345	0.3626495	0.19679238	-0.2979977	0.32060623	0.046849392	-0.22978441	-0.074463375	-0.5694921	-0.40682888	0.09595763	0.35469887	-0.30633512	-0.26902074
0.08794482	0.47030517	0.06081772	0.6581796	-0.011483114	-0.11277594	-0.031907707	0.41690943	-0.57521284	-0.3803398	-0.13628931	-0.41244426	0.58281904	0.6542432	-0.67851925	0.12465945
-0.61599344	-0.39479533	0.49636635	0.46745533	0.53222966	-0.55621207	0.71815807	-0.23956582	0.10744692	-0.5390941	-0.35680065	0.241913	0.3042178	-0.03986951	-0.44280416	-0.6282547
0.2378963	0.047036253	-0.09307569	-0.03438996	-0.013011335	0.08511858	-0.018417366	0.04137957	0.042427063	-0.08823024	0.18460317	0.20750749	0.077535175	0.0038281125	0.01912463	0.20880362
0.6352419	0.4597209	0.096906245	-0.13177383	0.21066622	0.5569155	-0.50143415	0.5422209	-0.17159678	0.35988417	-0.29588276	0.049629774	0.00020628117	-0.08650703	0.25165656	0.40159994
-0.34561926	-0.12912716	-0.28613847	-0.03794547	-0.5368201	-0.019469159	0.1385091	-0.15062864	-0.040538467	0.09511542	0.31850913	-0.43417487	-0.10009179	0.466759	-0.09767277	0.22425286
-1.0027399	-0.4129428	0.92613286	0.8473325	0.9645454	-0.74107933	0.8851728	-0.3817126	-0.121256836	-0.9527044	-0.846724	0.25336668	0.8115831	0.18156263	-0.777918	-0.773973
0.29654562	0.5456962	0.39156878	0.20964873	0.36036816	0.17353585	-0.26998517	0.52849615	-0.28888705	0.118307225	-0.59185004	-0.04249422	0.16464576	0.015138985	-0.0029893108	0.06313107
0.06861205	0.19760053	0.17614242	-0.28911442	-0.005950609	0.34393948	-0.34838858	0.20518821	0.118574604	0.367605	-0.18741523	-0.14184123	-0.2727441	-0.099061154	0.28335458	0.18162012
-0.20620503	0.10925958	-0.13041879	-0.017510587	-0.34542963	0.09531509	-0.10637548	-0.010661376	-0.15506259	0.22279584	0.14598638	-0.4375032	-0.12113407	0.35708064	-0.015435074	0.20966274
-0.2379988	0.08203921	0.0900645	0.05417644	-0.19168252	0.041820135	-0.042995572	0.037906293	-0.05680753	0.14101416	-0.06283017	-0.29690444	-0.004543801	0.2673357	0.03472286	0.05494622
0.07196824	-0.11481624	0.4527277	-0.20874657	0.40745834	0.2043247	-0.111837454	0.06027899	0.36980033	0.1764692	-0.34148785	0.21385507	-0.20108902	-0.37156704	0.31366292	-0.09140421
-0.81891435	-0.66130626	-0.2857182	-0.59744895	-0.71330607	0.4505839	-0.17351103	-0.58555967	0.5093364	0.69360024	0.31591433	-0.7522758	-0.75072336	0.27307874	0.5668537	0.29551938
0.16394134	0.07108364	0.4316808	-0.418286	0.36220312	0.31567457	-0.3189608	0.22757557	0.5315458	0.3631491	-0.4314313	0.16668846	-0.4024744	-0.5478991	0.36741212	0.024330428
-0.17298897	-0.604229	-0.6274364	-0.11621105	-0.28098255	-0.38353556	0.6290847	-0.51814085	0.44108433	-0.463558	0.76694936	0.4392721	0.1965028	-0.1930367	-0.14528836	0.073058404
-0.021619773	0.021165144	0.44613886	0.11229929	0.4087134	-0.07194083	0.088982396	0.050310098	0.09436991	-0.0804271	-0.34608164	0.26276582	0.08876505	-0.13889976	-0.033945117	-0.23002598
-0.098125726	0.14968964	0.030859306	0.24565953	-0.17825568	-0.05691505	0.06937468	0.047907792	-0.21377388	-0.05683944	-0.030069556	-0.2551591	0.17755833	0.4383313	-0.17270947	0.07800469
-0.47080845	-0.35451785	0.064272806	0.22779185	0.062137377	-0.46209404	0.6514373	-0.3957335	0.07321047	-0.33650288	0.17914194	0.08448079	0.121253714	0.07405257	-0.36238483	-0.2961003
-0.011764141	-0.029137436	0.39956063	-0.27038452	0.27675125	0.16086175	-0.1782619	0.14458916	0.30235994	0.24569927	-0.31074378	0.0068972595	-0.25615743	-0.30243313	0.29628214	-0.011032784
0.35164732	0.5332437	0.1401767	0.17786996	0.2029832	0.15735313	-0.28212735	0.45706862	-0.33685786	0.051171195	-0.32813564	-0.03223288	0.18563859	0.16199324	-0.069253094	0.16460237
-0.5089049	-0.3861948	-0.290211	-0.63417	-0.5994884	0.53929746	-0.34012133	-0.30617082	0.4565123	0.64685035	0.22722465	-0.5913836	-0.62875587	0.10104213	0.6164217	0.46750823
0.24187218	0.3219307	-0.5595675	0.38208616	-0.5888385	0.047441855	-0.09237828	0.15597704	-0.40077856	-0.26508158	0.4906322	-0.26324335	0.33220884	0.53061026	-0.44535595	0.5921784
0.11966168	-0.17676663	-0.7364631	0.023812536	-0.61424196	-0.07815436	0.15158065	-0.0863731	-0.04692688	-0.26183084	0.7685662	0.06559365	0.20220987	0.21748671	-0.1222161	0.54220855
0.41965958	0.35925618	-0.04169372	0.28836137	0.037933085	0.06016316	-0.20944203	0.40392736	-0.3286402	-0.18000434	-0.0076313172	0.08307849	0.37939215	0.23011847	-0.2533557	0.18350968
-0.07663041	-0.050233427	0.2792667	0.46466556	0.31280908	-0.4522535	0.3922119	-0.07565691	-0.11571151	-0.4500396	-0.1591916	0.2828429	0.43892014	0.08332436	-0.51168966	-0.33739817
-0.8371374	-0.7970103	0.42364138	0.42846274	0.53970236	-0.7811082	1.0601242	-0.6899178	0.43678737	-0.83455276	-0.14815041	0.5573694	0.40377647	-0.3273513	-0.56154984	-0.7084302
-0.40473023	-0.06603762	0.21029922	-0.21142	-0.2876702	0.29399815	-0.2585612	-0.15181199	0.20164722	0.54781294	-0.20715119	-0.60960335	-0.39771298	0.14828148	0.2643268	0.15373294
-0.48351163	-0.0805319	0.3932703	0.05762325	0.1900496	-0.06367304	0.18665136	-0.09178963	0.097652815	0.11779483	-0.4557972	-0.2756995	-0.067469254	0.061769098	-0.05280168	-0.16220644
-0.5406297	-0.34969395	0.535047	-0.0056772507	0.24779877	-0.18278657	0.37738493	-0.23043953	0.29643202	0.0041935435	-0.40259147	-0.12171045	-0.0897594	-0.22804064	-0.006430761	-0.42984557
-0.30124098	-0.24059895	0.36161414	0.23226403	0.31174767	-0.273194	0.32234076	-0.18595833	0.17203952	-0.22010802	-0.30621424	0.14716654	0.10587663	-0.056325294	-0.1973132	-0.36223367
0.03739429	0.18961766	0.26277062	0.19050276	0.15990414	0.115853876	-0.1294185	0.2794023	-0.12319323	0.07645339	-0.3363524	-0.17050752	0.07668541	0.13057107	-0.04864161	-0.049649518
0.5634463	-1.4437345	-1.2096765	-0.5780144	-0.80529064	-0.60375035	1.2441821	-1.0908821	1.1789972	-1.1910394	1.3007756	1.3589728	0.62243694	-0.94500387	-0.09664561	0.45603323
0.33025572	0.6745821	0.13646376	0.6374341	-0.020052372	0.030333271	-0.223322	0.57654905	-0.7889002	-0.22311495	-0.4051311	-0.5100675	0.6027874	0.69869024	-0.6394057	0.13461928
-0.33230764	-0.0742547	0.225653	0.32046995	-0.03481471	-0.26549184	0.3257564	-0.0688435	-0.10422091	-0.101478055	-0.11753747	-0.27256662	0.13729812	0.3561598	-0.32052743	-0.126547
1.3242432	1.3147413	1.1424172	-0.9873674	1.2512408	1.0756125	-1.1678591	1.2187214	1.0620489	1.1847144	-1.1177025	1.049859	-1.1557001	-1.1512166	0.98175347	0.81723523
-0.04627053	-0.05597774	0.0921098	-0.0716234	0.039900593	0.1266817	-0.14074904	-0.0046364972	0.10891509	0.17989576	-0.13323493	-0.089787655	-0.11378835	-0.029370219	0.02596882	-0.0008957903
1.0597006	0.042652015	0.23210412	-0.8661025	0.630591	0.7427768	-0.66018325	0.40845942	0.95695204	0.5262206	-0.15886828	0.8330596	-0.71242034	-1.0066079	0.8569439	0.6794554
-0.04620343	-0.69235	-1.1421045	-0.3998524	-0.89026624	-0.1036659	0.5464771	-0.62403524	0.5025856	-0.31559673	1.1788715	0.27091378	-0.05270447	-0.13874346	0.2596259	0.7862902
-0.11909209	0.12916605	0.23985776	0.22699043	0.033240467	-0.07538995	0.06360034	0.05754379	-0.15066336	-0.030642467	-0.14720467	-0.12794282	0.1567478	0.16707106	-0.106813245	-0.055418402
-0.229875	-0.4738838	-0.56161606	-0.13998497	-0.4129583	-0.21101202	0.41631854	-0.36230966	0.23380233	-0.26157913	0.6173747	0.15084456	0.07480522	0.04269299	0.010253176	0.06963354
-0.29123625	-0.2851431	0.06554153	0.03528675	0.03978807	-0.28489953	0.38693365	-0.2111858	0.26231095	-0.20832455	0.08081102	0.14785007	0.0610782	-0.07889734	-0.116407946	-0.23325895
0.8946498	0.7273322	0.7251523	-0.51111585	0.933389	0.6400505	-0.6757382	0.7618941	0.44660455	0.53249824	-0.71656215	0.72073513	-0.46764585	-0.7166547	0.55741334	0.355893
-0.2493373	0.23681837	0.58385724	0.8112808	0.54808664	-0.4815721	0.3939973	0.083509065	-0.49589658	-0.64739525	-0.71253186	-0.015244791	0.66783893	0.39386165	-0.6766826	-0.47963873
0.29646528	-0.042553436	0.5301836	-0.22096524	0.6072533	0.15596704	-0.08487337	0.18014316	0.49584064	0.080523096	-0.48966134	0.51860684	-0.18281388	-0.61583745	0.29931056	-0.13424775
-0.0434344	-0.06995157	-0.18166757	-0.018072892	-0.3176593	0.1016716	-0.008039319	-0.022580769	0.013315556	0.08362314	0.24990946	-0.14688475	-0.079549134	0.20578106	-0.018109208	0.15244097
-0.32602447	-0.94569564	-0.14747705	0.046422075	0.036409568	-0.61216205	0.8714546	-0.752236	0.6527994	-0.61145324	0.5230913	0.5880415	0.2585719	-0.4533014	-0.19263461	-0.33369344
-0.072202735	0.06898284	0.06689251	-0.044667255	-0.057636388	0.18026246	-0.17726277	0.071692094	-0.0124325575	0.15013987	-0.148312	-0.26269174	-0.11460907	0.09728787	0.04847173	0.11755003
-0.41842103	-0.52990377	-0.30448368	-0.45095158	-0.5231532	0.13448595	0.04085963	-0.50616294	0.37919712	0.34270304	0.3584061	-0.39384505	-0.4027152	0.17587854	0.42126065	0.2765603
0.38760245	0.5275985	0.31033653	0.26951405	0.42836282	0.0863995	-0.13314457	0.5633953	-0.34657168	-0.08915174	-0.5206618	0.06105498	0.38908997	0.12377979	-0.28409562	-0.10200943
0.23885977	0.6934997	0.1345169	0.6692932	0.043194186	0.10467374	-0.24203321	0.52118933	-0.66761184	-0.3200174	-0.4957739	-0.47370836	0.62213695	0.61872536	-0.660368	0.29003033
-0.0047048572	-0.10487819	0.08734722	-0.09812255	0.07752722	0.10833835	0.029054586	-0.014501549	0.25046492	-0.017127154	0.04645245	0.20685938	-0.113331206	-0.21320568	0.16756514	0.027091088
-0.13499545	0.12833557	0.13888565	-0.17890368	-0.25396973	0.39705762	-0.40811136	0.043232318	-0.01083113	0.43478736	-0.22559749	-0.6079751	-0.21371323	0.2251803	0.2360951	0.21014826
0.8101653	0.43145669	0.7568095	-0.91892695	0.791904	0.86597	-0.8130088	0.5949349	1.0385187	0.7956706	-0.69441843	0.56881344	-0.8821699	-1.0058146	0.8856707	0.6423677
0.7994837	0.6771491	-0.70877665	0.6834596	-0.67895925	0.3665654	-0.42851952	0.62839204	-0.7735888	-0.47345987	0.32003167	-0.103060275	0.71436185	0.63028336	-0.6834771	0.768588
-0.091086835	0.035874628	0.35796595	-0.15718041	0.11833644	0.13917895	-0.17467359	0.047765948	0.14798252	0.2701663	-0.2957153	-0.09259435	-0.11049384	-0.08840692	0.16660732	-0.08617396
-0.11057699	-0.3786827	-0.023282427	-0.23383605	-0.08495887	-0.05457057	0.13840991	-0.30910695	0.5139494	-0.029840488	0.26209146	0.25279596	-0.17109865	-0.26592398	0.18624821	-0.021125713
0.015173144	-0.16484971	0.14240482	-0.33065197	0.0824906	0.21149848	-0.16033934	-0.02028539	0.4099985	0.224153	-0.12043719	0.07643713	-0.30605543	-0.34289664	0.36669123	0.08336467
0.4856174	-0.0024936493	0.12547006	-0.23036525	0.4308865	0.16110966	-0.07819979	0.16576989	0.27897337	-0.10372804	0.0019981742	0.6961043	0.034872063	-0.38875937	0.22553785	0.18825069
0.28878868	0.2580635	0.2645031	0.3738777	0.43730676	-0.10569958	0.11159892	0.26918298	-0.26051876	-0.42818487	-0.16701508	0.30521464	0.52831393	0.07934668	-0.35678688	-0.09757847
0.0017142259	0.21072482	0.03889365	-0.13484788	-0.13225107	0.3841773	-0.3813148	0.20851423	-0.058436986	0.5122087	-0.13053048	-0.4116342	-0.27132443	0.10063494	0.22898899	0.28813124
0.34074908	0.10990356	-0.2051309	-0.057989348	-0.1363842	0.17153776	-0.17204183	0.12780663	-0.12725571	0.0556676	0.21501571	0.041835543	0.1337663	0.055254113	0.051956538	0.31275702
0.35561147	0.60968673	0.111345544	0.61991996	-0.0018274734	0.07397963	-0.24059702	0.5298956	-0.65203273	-0.17976843	-0.36950833	-0.44518176	0.48787755	0.642976	-0.5987088	0.25238693
0.24315152	-0.08431922	-0.42188784	-0.27399054	-0.25269216	0.27118927	-0.11758149	0.015980752	0.14317855	0.074183285	0.41319746	0.15811591	-0.07872591	-0.07908226	0.3027077	0.4145173
0.66944176	0.41143408	0.47382304	-0.49058804	0.5572191	0.57605326	-0.6189485	0.6345287	0.32775357	0.57255566	-0.6401902	0.36431655	-0.45955566	-0.6409396	0.5212165	0.26049122
1.0565832	1.0743725	1.0043916	-0.8693741	1.0417317	0.92252684	-0.9379502	0.94931024	0.8309753	1.033922	-0.963896	0.89241064	-0.93759775	-0.92006296	0.83859354	0.5273104
0.31175	0.39241743	0.2526861	0.2319581	0.2683339	0.068702675	-0.22776602	0.38535038	-0.36245024	0.02091433	-0.4035974	-0.115129486	0.28733283	0.14241648	-0.1550453	0.10993892
-0.04546943	0.025383664	0.44748297	0.15895222	0.3882176	-0.099520534	0.114263505	0.12393922	0.11650776	-0.024654225	-0.41965166	0.0934568	0.085761145	-0.120589934	-0.058464773	-0.20480229
-0.1462399	0.19701685	0.27798298	0.3021625	0.10102185	-0.12672006	0.052454177	0.12699178	-0.26549378	-0.14709316	-0.22074687	-0.25358003	0.27065444	0.26020515	-0.27394927	-0.06373798
-0.6372152	-0.23767035	-0.3696953	-0.5544713	-0.7540513	0.7818267	-0.8174882	-0.38251036	0.13281776	0.7964703	0.15099634	-0.8494191	-0.63373804	0.7055392	0.5886197	0.61653095
0.23916441	0.27251992	0.4446081	0.29921842	0.44762847	0.0051218527	-0.018700732	0.24380252	-0.22177118	-0.119865805	-0.50394285	0.06055507	0.242891	0.065085635	-0.23409465	-0.14810051
0.0046458985	0.38952675	0.61460406	-0.42894027	0.34402803	0.5494878	-0.5393872	0.3921371	0.42622775	0.63695395	-0.62359726	-0.17202687	-0.5530732	-0.37693936	0.5549233	0.14479873
-0.34390834	0.19563583	0.52435505	0.3038632	0.28135553	-0.18341856	0.13665153	0.11548955	-0.24694899	-0.021715624	-0.53676593	-0.32116756	0.1608146	0.27427122	-0.2821452	-0.3037635
0.075696774	-0.03568987	-0.20135453	-0.14389554	-0.27187935	0.22827873	-0.09676206	0.031361856	0.010939851	0.1155053	0.21441127	-0.14765024	-0.09111031	0.15369828	0.12490783	0.26879522
0.28457108	0.27594218	0.29534793	-0.6489698	0.07232393	0.78675205	-0.7554925	0.41861123	0.4263854	0.76714253	-0.32925797	-0.07200988	-0.65120584	-0.44159102	0.7142228	0.690298
-0.43057373	-0.3023925	-0.11750735	-0.34417194	-0.44845632	0.29382825	-0.15662734	-0.27254423	0.20521404	0.5647083	0.108725905	-0.5388962	-0.50490373	0.21446772	0.34134263	0.23530132
0.23467775	0.026955485	0.48889965	-0.07782228	0.5701334	0.088370636	-0.072379485	0.20133476	0.29651764	-0.027288534	-0.330992	0.50491774	-0.018868977	-0.34587765	0.17621925	-0.18790779
-0.03441055	0.22046064	0.15778251	0.12614584	-0.12810643	0.19675477	-0.16072716	0.14244452	-0.17959507	0.1651281	-0.22326891	-0.29243982	0.010472796	0.246995	-0.02796697	0.1673407
-0.43149683	-0.37751195	-0.22885649	-0.35525295	-0.43092948	0.18849431	0.019841624	-0.38494536	0.34507158	0.33774424	0.3048708	-0.31410408	-0.35449284	-0.019020187	0.30750725	0.14988926
0.69470245	-1.0779042	-0.91361547	-0.27809536	-0.4834541	-0.56562805	1.0088217	-0.77525544	0.70292735	-1.0185807	1.0894114	1.193788	0.6459185	-0.6955806	-0.14982322	0.14392015
-0.0823908	-0.14378329	0.07489779	0.13423453	0.041998602	-0.16989352	0.24826209	-0.17928073	0.016003747	-0.2656632	0.04156399	0.078961216	0.12953962	0.042881835	-0.12198099	-0.085650675
0.14287984	0.44199672	-0.18950203	0.41620937	-0.25873572	0.1332825	-0.23054615	0.3192731	-0.53480333	-0.059816737	0.0085134385	-0.45685482	0.34765956	0.61167663	-0.31874457	0.34081528
-0.19918448	-0.18828662	0.24686462	0.45303935	0.2896787	-0.47048807	0.4724995	-0.1198617	-0.03772135	-0.6037113	-0.06582403	0.32519552	0.5086931	0.12969214	-0.49099374	-0.31872326
0.19312145	0.44524252	-0.46210948	0.38164303	-0.5294432	0.19983229	-0.29736394	0.30081034	-0.5538467	-0.14443322	0.26510826	-0.4018743	0.41421705	0.64220935	-0.367523	0.49656072
0.5267783	0.44081604	0.3361741	-0.15263394	0.406945	0.42310044	-0.51010484	0.47220856	-0.00032590164	0.2902405	-0.41931605	0.17411704	-0.113636255	-0.2783056	0.22510253	0.20618546
-0.022697685	-0.08599403	0.26699963	-0.09932962	0.31494936	0.085225694	0.0007161746	-0.018119127	0.17157906	0.022855118	-0.24642426	0.18231517	-0.03220627	-0.3102767	0.23536307	-0.13078296
0.39285293	0.47828797	0.03949865	0.15901245	0.090954974	0.33391953	-0.46148703	0.51366997	-0.28503525	0.18746632	-0.2578851	-0.22978663	0.14673021	0.21253543	-0.022071254	0.33468315
-0.16979809	0.33678457	0.83363724	0.26154155	0.66858536	-0.20765501	0.015131002	0.37675855	-0.06437115	0.04623088	-0.9672861	-0.19148552	0.09161633	-0.08717395	-0.20463613	-0.42900243
-0.4014909	-0.34499454	0.21626168	0.004509789	-0.02152001	-0.1645276	0.2948374	-0.2693689	0.20373173	-0.030918896	-0.12427458	-0.12687406	-0.08790814	0.011713085	-0.078830786	-0.18477312
-0.1476625	0.1751459	0.6688445	0.30254483	0.45700365	-0.12378859	0.10431577	0.15228283	-0.12369633	-0.08960378	-0.77858615	-0.07342474	0.17471881	0.16346225	-0.22268733	-0.24689911
-0.57709813	-0.38984087	0.66065854	0.5941944	0.63229597	-0.6204392	0.63801837	-0.38593093	0.12584071	-0.68502986	-0.40057027	0.31307065	0.53158754	0.06337491	-0.5880883	-0.6499587
-0.13041385	0.11796233	0.44287995	0.5275165	0.48860177	-0.40500748	0.30747595	0.08573116	-0.192119	-0.49287412	-0.41740566	0.14856824	0.4630391	0.14497472	-0.46299922	-0.34889302
-0.28697452	-0.015449219	-0.19902751	0.07948006	-0.3758536	0.020119341	0.06397866	-0.09842999	-0.12834601	0.027483627	0.2508658	-0.3380312	-0.053629383	0.38222414	-0.06956436	0.16856284
-0.2290285	-0.250513	0.3242724	0.55541193	0.4899719	-0.49321952	0.67703694	-0.19500305	0.009516198	-0.6853374	-0.1308905	0.5438583	0.5312357	-0.012450995	-0.58791566	-0.49313617
1.1251944	1.05946	0.8053858	-0.90399146	0.8552042	0.95317394	-1.0816936	0.92818636	0.78651714	1.0305451	-0.87958926	0.6907029	-0.97052866	-0.9284527	0.87262654	0.9287934
-0.120043084	0.1841175	0.12304806	0.06613436	-0.12354656	0.13494901	-0.15231338	0.10082331	-0.15854985	0.2061881	-0.21887507	-0.3833686	-0.045051962	0.30149537	-0.0049596974	0.111173816
-0.64408094	-1.0496367	-0.54489905	-0.3193054	-0.58162135	-0.27669156	0.71938396	-0.8908763	0.73792744	-0.12267788	0.8077131	-0.013384335	-0.22143687	-0.02731178	0.1410624	0.17054056
-0.011700138	-0.026780458	-0.00656111	-0.2044397	-0.07110539	0.29521808	-0.25848484	0.08361842	0.11579831	0.22508952	0.05151361	-0.11653015	-0.1787511	-0.08313674	0.20796433	0.18814926
-0.12760834	0.1633615	-0.27924562	0.31176075	-0.40854177	0.004181531	-0.12656052	0.09234541	-0.27750126	0.053109307	0.19900341	-0.43865263	0.18659936	0.53636086	-0.25527963	0.2809241
0.69877994	0.950063	-0.4849916	0.5382483	-0.47605026	0.6461732	-0.90130854	0.7408833	-0.8921119	0.12255056	-0.1991721	-0.81178904	0.43234515	0.76248777	-0.40194863	0.71652436
-0.82560784	-0.7425992	-0.5914602	-0.80302954	-0.9403429	0.7274234	-0.515808	-0.73561287	0.60036165	0.92755014	0.54131126	-0.94148266	-0.78863716	0.6586216	0.76515853	0.6017124
0.2861311	-0.019018995	0.22021784	0.35378373	0.52491367	-0.35242677	0.2969939	0.08713633	-0.02443844	-0.5627745	-0.11884688	0.51439583	0.46129915	-0.16865358	-0.37685037	-0.35558644
-0.27492186	-0.080158085	0.3714092	-0.030203095	0.19784358	-0.07314056	0.15231675	-0.032778673	0.19322437	0.04300027	-0.28875914	-0.0576826	-0.13565533	-0.05625538	0.045121346	-0.15100984
0.49661854	0.14733587	0.025784237	-0.45088068	0.24470729	0.5463384	-0.46406958	0.22713855	0.34112436	0.31793347	-0.05520342	0.33808684	-0.33383325	-0.45310566	0.5348331	0.37498933
-0.1566588	0.1198582	0.008136379	0.085262194	-0.14778604	-0.0027239518	-0.046653975	0.051780008	-0.10503019	0.094342664	0.053753655	-0.30458665	0.062999144	0.26669332	-0.074842215	0.08572
-0.5849684	-0.23935094	0.31004828	-0.052510865	-0.11172645	-0.031555295	0.07337611	-0.30017355	0.21692143	0.35489285	-0.26576453	-0.46732232	-0.302953	0.22757356	0.1481073	-0.18738237
-0.22601488	-0.024434995	0.34119785	0.19935687	0.26726165	-0.2041209	0.20186967	-0.020396883	0.0136992885	-0.11832463	-0.29971823	0.013885486	0.104246564	-0.040216263	-0.18002999	-0.23888619
-0.5576959	-0.49213508	-0.88272506	-0.5590574	-0.9126813	0.35977545	-0.008648911	-0.5594292	0.35521388	0.45064247	0.82007945	-0.52870125	-0.43755478	0.32341978	0.42631838	0.7237476
-0.06707797	0.41417938	-0.17618404	0.43441698	-0.29894283	0.0619248	-0.10279933	0.32145345	-0.5148718	-0.08998621	0.033980615	-0.55559033	0.31218967	0.6698536	-0.4944994	0.2680283
-0.2178838	-0.6247833	-0.5922433	-0.7347341	-0.49371833	0.24862775	0.010269881	-0.46476004	0.66710997	0.24709722	0.53304046	-0.04399646	-0.51441395	-0.28315562	0.47448367	0.62500626
0.47148645	0.77587223	0.067854635	0.6179264	-0.04296434	0.3383145	-0.57738155	0.6684064	-0.7306146	-0.2542483	-0.5015947	-0.5283468	0.5492361	0.6218566	-0.6275318	0.48143658
0.6177081	0.8522947	-0.2266585	0.7417333	-0.20752527	0.22062527	-0.5492504	0.7448078	-0.89282835	-0.4051451	-0.17250916	-0.5280605	0.67572325	0.78543067	-0.792006	0.5570712
-0.74020445	-0.6144013	-0.7193426	-0.7342796	-0.9886612	0.8042188	-0.5097046	-0.71097976	0.4710741	0.8715823	0.6333854	-0.88834184	-0.75918514	0.60015076	0.7427506	0.72994095
0.43052474	0.6434233	0.26520303	0.49142262	0.2255782	0.14923182	-0.40833446	0.5908309	-0.57989633	-0.15043728	-0.5966226	-0.29669774	0.4382414	0.5238239	-0.3693672	0.15364055
0.22526056	0.15077646	0.017457658	0.3794889	0.18396583	-0.074035205	0.0840605	0.121092275	-0.1329636	-0.41433722	0.13566917	0.29507777	0.49844173	0.0646121	-0.29101077	0.111273915
0.29265192	0.39549783	0.074026704	0.34728652	0.13605747	0.11750428	-0.21898137	0.3403709	-0.36513096	-0.20326704	-0.12714063	-0.032771796	0.38563964	0.2499807	-0.15931217	0.19057934
0.06294587	0.3467519	0.073578544	0.44454315	-0.20922506	-0.0070662517	-0.110139966	0.32565928	-0.5439192	-0.067687266	-0.10723902	-0.38561386	0.3500962	0.55936587	-0.41082892	0.18504973
0.082358174	-0.0016683479	0.35566363	-0.19042028	0.35257486	0.11708534	-0.04657105	0.12170133	0.35707542	0.13049476	-0.20763996	0.19962218	-0.17765202	-0.27944547	0.23911612	-0.117586344
-0.9131141	-0.8446583	0.76861393	0.50019985	0.68514675	-0.82025146	0.977222	-0.67822415	0.4940577	-0.80085814	-0.46581194	0.56526387	0.3977296	-0.36502707	-0.538058	-0.80275244
0.5992035	0.0433104	0.1952355	-0.58701444	0.4311591	0.5273061	-0.45664814	0.32516184	0.6688375	0.3323658	-0.20200713	0.54631007	-0.41039082	-0.61786544	0.6129491	0.45616457
0.49778193	0.1507899	0.44104525	-0.5048026	0.6509452	0.3900505	-0.31359673	0.32117343	0.6465445	0.24454181	-0.30747995	0.5726073	-0.42410612	-0.598141	0.46446538	0.13528287
0.73667234	-0.12100892	0.25208426	-0.38835084	0.7656612	0.13493486	-0.05780567	0.16198729	0.7037883	-0.095412806	-0.11983293	0.8821428	-0.120813765	-0.82186204	0.3478975	0.02469389
0.109923996	0.09889145	-0.049500663	0.344032	0.021344617	-0.1822339	0.18349333	0.07625324	-0.2429643	-0.49307686	0.10018821	0.16468294	0.48778042	0.23687541	-0.35206398	-0.04332468
0.17471655	-0.13804471	0.26338357	-0.3419565	0.343609	0.21744022	-0.09507057	0.061959095	0.45081228	0.13753673	-0.161211	0.34455073	-0.2450765	-0.4887901	0.3266662	-0.018310014
0.07726887	0.19164047	0.29864138	0.019513797	0.19477278	0.1811302	-0.22164196	0.18427908	0.0043185796	0.17716268	-0.42968288	-0.025056915	-0.10547923	-0.029504126	0.14171228	-0.01808757
-0.202267	-0.07997004	-0.009559351	-0.14182872	-0.14520065	0.11361993	-0.04170991	-0.0704933	0.12842378	0.23992512	0.023723694	-0.30415946	-0.24364026	0.08122937	0.09297119	0.03956408
-0.23632811	-0.12476698	0.19983721	-0.10775475	-0.030281214	0.07549628	-0.0064875605	-0.048023716	0.18866132	0.26805764	-0.105442524	-0.1978464	-0.24512164	-0.013164519	0.17821375	-0.027732903
0.422383	0.24024928	-0.07539382	0.24823135	0.20728345	-0.04272092	0.05779439	0.25813884	-0.2615345	-0.37268442	0.081784606	0.31644878	0.44483542	0.07368113	-0.24002141	0.09757826
0.090289995	0.07543042	0.6877511	-0.27865133	0.50373584	0.23699261	-0.23850146	0.2599553	0.39980265	0.33339736	-0.6805832	0.2097256	-0.34210485	-0.5219674	0.3792311	-0.074467465
-0.18399468	0.18325885	-0.40687555	-0.039828807	-0.59089005	0.5639329	-0.5504136	0.06926651	-0.25092146	0.49047443	0.22336605	-0.7690643	-0.16278163	0.53468376	0.08712143	0.48194093
0.013828121	-0.5055266	0.09819585	-0.1391304	0.28655615	-0.18070073	0.3417547	-0.3100313	0.5168322	-0.31651905	0.15026373	0.5522508	0.03094311	-0.461694	0.09951446	-0.23974927
-0.81522024	-0.35535353	0.67986214	0.941274	0.9013136	-0.8550968	0.9956703	-0.40239683	-0.13157494	-0.9989437	-0.556551	0.6153356	0.97562706	0.06385222	-0.92356133	-0.8355776
-0.22705309	0.2315095	0.0027048541	0.15604113	-0.27947053	0.10142409	-0.17001955	0.19861594	-0.24082156	0.15993272	-0.04244112	-0.4883039	0.062045787	0.5159258	-0.13344033	0.2675703
-0.41479948	0.055230167	0.2601669	0.13688716	-0.10885292	0.04464965	-0.019716693	-0.044552397	-0.11078179	0.28587088	-0.32731786	-0.5427445	-0.16133055	0.40879446	-0.07794496	-0.044709153
-1.0199804	-0.7042585	0.99695766	0.8774966	1.0011501	-0.9611054	1.1358649	-0.6750356	0.1812132	-1.1649964	-0.8498911	0.8269805	0.94727343	-0.13710268	-0.9207452	-1.0303481
-0.3238457	0.08505494	0.27886534	0.068180315	-0.04371942	0.089176595	0.00030033488	-0.0073973304	-0.055066295	0.3051711	-0.3292748	-0.57712376	-0.09542003	0.3105244	0.06827042	-0.06648753
0.41980883	0.078932784	0.18180202	-0.5206759	0.2440296	0.36216706	-0.39542854	0.19015592	0.55774075	0.27814928	-0.17823914	0.2996776	-0.37681985	-0.5407654	0.4580365	0.36856514
-0.375637	-0.53744984	0.12446232	0.19834168	0.14172596	-0.52241284	0.6587788	-0.47781822	0.22129877	-0.5082984	0.23867752	0.31897166	0.24606633	-0.06308879	-0.27820688	-0.3370833
-0.11803123	0.17933711	-0.39813995	0.064479694	-0.53487426	0.22157812	-0.27091074	0.1194568	-0.281938	0.1971605	0.34398916	-0.48652667	-0.049350653	0.5212571	0.037773747	0.432746
0.14451699	-0.9040441	-0.70414037	-0.093687855	-0.3942659	-0.5780709	0.9198187	-0.7361985	0.6867144	-0.8488175	0.8181728	0.7647544	0.5019158	-0.46171588	-0.32196963	0.034714013
-0.25244024	0.08963508	0.4657828	0.4611003	0.45594618	-0.34798932	0.3185209	0.066236764	-0.17009108	-0.22641684	-0.5474872	-0.014650572	0.30138692	0.117792286	-0.3826898	-0.41267428
-0.34185907	-0.4038417	-0.24743664	-0.13331509	-0.38069054	-0.08349025	0.30120888	-0.3178654	0.24330772	-0.012409531	0.45674258	-0.1280248	-0.14438345	0.104005374	0.10179467	0.081814066
-0.32732674	-0.30266687	-0.15649237	-0.092943594	-0.30541292	-0.015927646	0.16230138	-0.25601983	0.16654226	0.10160838	0.24304041	-0.18615007	-0.17769295	0.15435912	0.077601574	0.041421257
0.4685252	0.060763776	-0.14379291	0.23866962	0.28734997	-0.116355255	0.14474578	0.12643035	-0.04121357	-0.54882234	0.19917469	0.60142905	0.45198727	-0.08173802	-0.19044486	0.0059569543
-0.8624128	-0.91965747	0.8125652	0.29690552	0.6671104	-0.5828935	0.7713958	-0.70532644	0.79625314	-0.32384068	-0.68565536	0.23176089	-0.032562796	-0.6190392	-0.27425772	-0.7873426
-0.015291761	-0.11003357	-0.06926569	-0.44884515	-0.17806484	0.34516114	-0.33698517	-0.1155869	0.36808008	0.36053035	0.02049481	-0.03455376	-0.40104312	-0.24329336	0.4578194	0.2491435
-1.0109969	-0.77769524	-0.73159313	-0.8321483	-1.0176866	0.8936857	-0.6648517	-0.74310815	0.6487063	1.0251026	0.76297265	-1.0544488	-0.8328773	0.64883494	0.89177996	0.64389086
0.44276664	0.45304722	0.39852202	-0.48532972	0.31288192	0.610825	-0.7030876	0.57874185	0.19883928	0.61668575	-0.46213087	0.0929103	-0.4244143	-0.37500337	0.5290786	0.6005362
0.12565131	0.34899917	-0.084925115	-0.018735716	-0.2822923	0.4510144	-0.5285228	0.2999175	-0.24630664	0.2802632	-0.14510311	-0.39727357	-0.1054381	0.3401282	0.09576894	0.39500347
0.3787501	-0.058441937	-0.3156535	-0.009034462	0.114764445	-0.04109981	0.10879851	0.014140402	0.16271733	-0.33811605	0.31761855	0.52431184	0.20934676	-0.14807035	-0.08669964	0.22302406
-0.10220798	-0.1517842	0.30877715	0.20613754	0.34923047	-0.24695066	0.351813	-0.12650754	0.16359939	-0.2866673	-0.17752253	0.23941866	0.20335582	-0.15387052	-0.19668081	-0.26202995
0.19975884	0.3569337	0.2023505	0.48553646	0.28125298	-0.10079293	0.025199937	0.31732234	-0.3717356	-0.3191596	-0.27896675	0.04295396	0.42931792	0.2591462	-0.4148305	-0.04269733
-0.36875555	-0.84360445	-0.72845775	-0.36333638	-0.6283555	-0.0793353	0.47582808	-0.7311875	0.61396664	-0.0993509	0.87025243	0.03563112	-0.23821217	-0.049684353	0.25904304	0.4823394
0.20278032	0.21707663	-0.05458969	0.23591715	0.029387401	-0.034192655	-0.10867878	0.2611988	-0.26586962	-0.11929334	-0.061580125	0.0024483807	0.2610753	0.271125	-0.21353546	0.15696289
-0.2263706	-0.4205118	0.5560373	0.42674106	0.91073555	-0.5564608	0.7366252	-0.29416654	0.4465247	-0.795247	-0.2463631	0.9112232	0.5314418	-0.5429297	-0.46895388	-0.73421955
-0.64788	-0.7355171	-0.4506226	-0.5548546	-0.70078677	0.3474925	-0.04717821	-0.61915034	0.51508844	0.48106772	0.60392076	-0.55699944	-0.5331515	0.34658203	0.53564477	0.39876905
-0.102424204	0.14958629	0.11208725	-0.34816527	-0.17869353	0.39266056	-0.47307986	0.11450113	0.11989321	0.5279891	-0.18607964	-0.41074878	-0.40589923	0.09064521	0.32881615	0.28491846
0.9359856	0.58056664	-0.8754693	0.65217257	-0.54426336	0.124947034	-0.337605	0.52182376	-0.69233716	-0.6322825	0.5147422	0.22831611	0.75973773	0.5104286	-0.6899386	0.8016685
-0.1636994	-0.8408525	-0.75400424	-0.4324325	-0.5130315	-0.14142804	0.44639748	-0.5750461	0.670263	-0.2607107	0.8090662	0.2688491	-0.025658904	-0.2063868	0.17881565	0.5408449
0.016199876	0.39272544	0.2110954	0.4929571	-0.0019361867	-0.012127497	-0.07852444	0.36594242	-0.4649181	-0.12902585	-0.28885543	-0.35966355	0.3383783	0.45209977	-0.32673505	0.0259413
-0.22897579	0.28753963	0.34111762	0.49795485	0.1430071	-0.10918253	0.10034621	0.13420272	-0.3090214	-0.068917334	-0.5406944	-0.39373022	0.23781252	0.41136163	-0.43751287	-0.15052742
-0.19046886	0.2852264	0.31274712	0.3033538	-0.11449511	-0.09066357	-0.108021036	0.10183922	-0.35614514	0.15267152	-0.39546144	-0.5833913	0.14473078	0.5914862	-0.33622894	-0.0077911476
-0.4293472	-0.39196932	0.48872563	0.4761811	0.57774144	-0.5722545	0.76420265	-0.2709857	0.21851255	-0.57376504	-0.27451143	0.4446419	0.39234576	-0.17088564	-0.44688788	-0.646951
0.16343912	0.42286316	0.016112585	0.56559926	-0.020589577	0.11448374	-0.17099965	0.33589923	-0.53799736	-0.27296218	-0.3237268	-0.46489817	0.40391728	0.4998495	-0.56422573	0.24176675
0.5167157	0.47489214	0.6867209	-0.53132844	0.714721	0.53484267	-0.5587721	0.5551527	0.6581946	0.5468109	-0.6835649	0.41332754	-0.56102526	-0.65206826	0.4914762	0.2393379
-0.5207298	-0.56032705	0.056770153	-0.024126437	-0.053497262	-0.28759408	0.5145819	-0.51107985	0.42824882	-0.18571563	0.1570955	0.022037147	-0.07205195	-0.1041534	-0.013237891	-0.26118094
-0.26449504	-0.16161212	0.015788237	0.2052301	0.04523549	-0.20079333	0.36176065	-0.19617355	0.029967235	-0.26474488	0.090122335	0.06835778	0.2519084	0.075301215	-0.22475204	-0.04288713
0.4804688	0.3967519	0.0039991075	0.08330646	0.17719778	0.23956068	-0.2825802	0.39308485	-0.233702	-0.10975517	-0.13538884	0.22486113	0.26799673	0.083855286	-0.02421458	0.26809746
-0.72718865	-0.42186344	0.71978134	0.54966134	0.6933755	-0.6044361	0.7551163	-0.3263067	0.17612353	-0.70954174	-0.67508286	0.40940833	0.53834707	-0.14580938	-0.5227768	-0.625952
0.065643124	-0.27989024	0.033213023	-0.13313356	0.2267989	-0.09586494	0.17689937	-0.17732345	0.41396198	-0.09953316	0.15812929	0.41627404	-0.047595512	-0.35037303	0.06170512	-0.0627044
0.55112714	-1.1904379	-0.91589034	-0.189087	-0.38589653	-0.7708802	1.2270243	-0.9710358	0.8788145	-1.162123	1.196589	1.2662253	0.85164607	-0.64267033	-0.32013762	0.14382166
-1.0100875	-0.6928713	-0.76950693	-0.8251858	-1.0569438	0.9402789	-0.6313139	-0.7198758	0.57004917	1.0673598	0.6230427	-1.0578741	-0.86669755	0.8184392	0.8235119	0.76578563
0.258809	-0.051025644	-0.18094291	0.057115085	-0.017005585	-0.060868435	0.09500226	-0.041870188	0.08916295	-0.27535143	0.31897455	0.28887415	0.1881176	-0.057433598	-0.0027971182	0.09515435
0.0050956905	0.17516364	-0.05164498	0.2627749	-0.119833015	-0.0683271	0.019660212	0.047283147	-0.31879294	-0.099667706	0.01662259	-0.19281794	0.21413292	0.35592896	-0.22666219	0.05319353
-0.4613614	-0.09204408	0.4019054	0.092741266	0.10707554	-0.16762842	0.16775118	-0.14247878	0.060875785	0.1653719	-0.40735576	-0.44546834	-0.113892086	0.09699289	-0.08580049	-0.22998415
0.5793813	0.74371886	0.20943214	0.08537427	0.1117827	0.5252745	-0.6373832	0.7382805	-0.3300511	0.39054626	-0.6088551	-0.40056276	0.03725629	0.13312949	0.103332035	0.40927988
0.16344753	-0.23263606	-0.40294778	-0.10749138	-0.24300632	0.017865896	0.050021674	-0.18674272	0.20752767	-0.09427152	0.45335406	0.27064258	-0.013109982	-0.13080227	0.06078659	0.17825009
0.021814581	0.36969084	-0.60969734	0.14939524	-0.48878187	0.41983223	-0.94786835	0.30358297	-0.395058	0.22214915	0.21421649	-0.6122691	0.07638801	0.7886229	-0.17767625	0.83782816
0.07769779	-0.07449116	-0.02825809	0.07131474	0.055828698	-0.0016216727	0.11279428	-0.031161504	0.04134918	-0.17181675	0.1705806	0.19115193	0.08626234	-0.07096464	-0.02304848	0.029107193
-0.6972007	-0.34387535	0.59255487	0.5913032	0.49932888	-0.63513917	0.7031589	-0.42711008	0.08110102	-0.6635676	-0.48549655	0.18185373	0.35182437	0.0045234445	-0.5574086	-0.6024366
0.4799683	0.3479231	0.033127356	0.15013549	0.25990176	0.12247127	-0.16936806	0.3329811	-0.20732938	-0.15559356	-0.11751761	0.3095669	0.28800598	0.014480617	-0.039456397	0.1766698
-0.90698963	-0.4722956	0.5382786	0.29611546	0.22917074	-0.46458322	0.5502737	-0.496503	0.24833496	-0.14664789	-0.5588993	-0.26620367	-0.030588198	0.2259704	-0.33099896	-0.5104873
0.09088904	0.17003912	0.20906018	-0.08996438	0.10655239	0.18456633	-0.24933188	0.15830715	0.09771452	0.1702167	-0.22412239	-0.013499964	-0.10797242	-0.12750831	0.16494687	0.093537055
-0.10811913	0.36396918	0.04333842	0.37812808	-0.13077624	-0.030122515	-0.047902744	0.25594053	-0.4202295	-0.033696193	-0.066371396	-0.4061182	0.30655757	0.56988835	-0.40378654	0.09145177
-0.16192865	-0.14412032	0.23580323	0.4480859	0.1969396	-0.38210553	0.40331227	-0.12714224	-0.026029931	-0.46072683	-0.026933461	0.22912167	0.33207947	0.079596154	-0.43323904	-0.22254808
0.012714344	0.14699076	0.4567001	0.5391531	0.549647	-0.36686584	0.2836466	0.1923797	-0.23185748	-0.5746193	-0.3764606	0.32442278	0.5364162	0.14024705	-0.43984473	-0.32009432
-0.10881318	0.13001442	0.06416421	0.19803274	-0.18448916	0.074109815	-0.15360384	0.08979695	-0.24487177	0.12720707	-0.09956353	-0.4608181	0.0447068	0.40986574	-0.16481802	0.06860741
-0.20029691	-0.20649366	-0.47393686	-0.18220542	-0.5342451	0.17526112	-0.10202721	-0.22448227	-0.03753744	0.11204093	0.4720135	-0.29019132	-0.0920288	0.31000245	0.10308043	0.46431038
-0.095208496	-0.6122027	-0.6076609	0.10986235	-0.24063973	-0.51906115	0.7670473	-0.4995584	0.26470184	-0.68306035	0.765033	0.57528055	0.3809978	-0.16658972	-0.31616932	0.047444403
-0.5237287	-0.34465224	-0.11614189	-0.20797361	-0.51619834	0.34997058	-0.14083019	-0.36965296	0.19329858	0.47804916	0.1992222	-0.70376194	-0.32727203	0.56092376	0.24314693	0.20259888
0.08517548	-0.13463582	0.17339735	-0.37269652	0.123238005	0.24550916	-0.13877805	-0.09008229	0.43330833	0.21108806	-0.07610071	0.1596667	-0.23486704	-0.38619587	0.35383627	0.108861305
0.32334244	0.19157203	-0.3958159	0.23753592	-0.39540514	0.16042995	-0.06630435	0.12909406	-0.269962	-0.21003051	0.32628304	-0.04324282	0.2950515	0.3212509	-0.17839268	0.337898
0.3217826	0.055270065	-0.26693565	-0.042507555	-0.12460611	0.21329963	-0.20646043	0.06941158	-0.05174365	-0.079395205	0.23437656	0.22066207	0.10362371	-0.04415936	0.07428754	0.3927832
0.27423072	0.381424	0.06483717	0.12244232	0.06960644	0.24720486	-0.3247824	0.36093998	-0.3086831	0.089657396	-0.21564034	-0.123388186	0.18581156	0.17114663	-0.04857327	0.30285695
0.15506896	-1.0224196	-0.7685805	-0.25023204	-0.30602804	-0.6325179	1.0177759	-0.83882076	0.8110671	-0.8343154	0.9849807	0.8464738	0.289693	-0.6061554	-0.12658994	-0.050288152
0.23111373	0.39435256	-0.09570089	0.38348773	-0.13623694	0.049130008	-0.107432395	0.27790096	-0.39599067	-0.24297813	0.046190403	-0.120112665	0.38435495	0.47183898	-0.30468777	0.21666747
-0.89045125	-0.6205687	-0.71260494	-0.71652836	-0.99499255	0.8688895	-0.76341546	-0.6460743	0.46892548	0.9770585	0.673197	-1.0575752	-0.76635474	0.7328371	0.8124099	0.8156826
0.6209213	0.83174795	-0.5967415	0.582562	-0.5708218	0.7430365	-0.93595254	0.66836727	-0.8259626	-0.0085548535	-0.18194626	-0.8198013	0.50563	0.71403545	-0.51535153	0.826485
0.5511206	0.46806005	0.73451436	-0.5907497	0.7202662	0.63295114	-0.66445845	0.6245539	0.74898607	0.75957596	-0.8175263	0.33086064	-0.6996602	-0.749712	0.6538384	0.18123484
-0.37218356	-0.033292826	0.1866644	0.051330484	-0.117192075	-0.001060933	0.11579849	-0.08517223	0.0067386427	0.12226613	-0.16172175	-0.3634671	-0.08577263	0.19612017	-0.021918261	-0.035931975
-0.5184724	-0.12275947	0.63077533	0.73092484	0.5461559	-0.6071334	0.59310615	-0.09661919	-0.17798978	-0.72974277	-0.6894589	0.14440873	0.61182916	0.14475441	-0.67818534	-0.5239806
-0.32852116	-0.072790466	-0.50151205	-0.18162303	-0.67605644	0.58734125	-0.6083582	-0.119077116	-0.005860857	0.5279444	0.36912984	-0.6443	-0.28557068	0.43624723	0.28158534	0.51274765
0.1368094	0.22545725	-0.22279799	-0.16858737	-0.2494521	0.50848514	-0.4877108	0.23159383	-0.13695279	0.34350997	0.004342554	-0.22682796	-0.08923847	0.10430798	0.2773869	0.5834938
0.33145526	0.5610957	0.20647414	0.34244806	0.25589368	0.0630081	-0.18204133	0.47895333	-0.44584477	-0.15851322	-0.43118566	-0.07637977	0.33031046	0.2673193	-0.37654373	0.08551902
0.37042764	0.5621936	0.082501255	0.07696519	0.025790645	0.35369602	-0.4260737	0.45380232	-0.3711148	0.20658988	-0.2342796	-0.23201342	0.08593965	0.22879748	0.038052946	0.37254527
-0.11386399	-0.74581695	-0.6417869	-0.34617278	-0.47509676	-0.15364729	0.5241764	-0.6399153	0.5422875	-0.3249756	0.8261348	0.41259593	-0.09317076	-0.29152742	0.18617642	0.2509052
-0.70895594	-0.67340183	0.39144492	0.5739921	0.54144746	-0.8264159	1.0399071	-0.6058964	0.2963878	-0.9501904	-0.0062375395	0.65778875	0.7635253	-0.19160923	-0.6093382	-0.64699197
0.14953189	0.35079744	0.10712164	0.2431277	0.11174131	-0.026207095	-0.0721089	0.2603206	-0.24398609	-0.13419697	-0.28198522	-0.09350702	0.2335116	0.21872781	-0.24515186	0.007140199
0.5868744	0.7911309	-0.54259515	0.5781594	-0.5805253	0.6408915	-0.8381924	0.57518667	-0.71461165	-0.09176106	-0.28680974	-0.87248677	0.50274056	0.5962105	-0.5926751	0.70904994
-0.633252	-0.50657326	-0.73671955	-0.44644436	-0.8288096	0.29300544	-0.02827399	-0.6102402	0.3537931	0.45964164	0.679388	-0.5514288	-0.4704532	0.39307517	0.45509753	0.6230409
-0.36963993	-0.5040601	-0.0011527273	-0.4542031	-0.3092968	0.20780137	-0.05186324	-0.38363373	0.6366037	0.3421334	0.09901831	-0.236718	-0.47650215	-0.10817507	0.38292384	0.18694603
0.32752565	0.2506872	0.3648525	0.16702804	0.50040793	-0.052419808	-0.08893544	0.33316243	-0.07710963	-0.18324555	-0.37554726	0.34171143	0.22570169	-0.13607433	-0.11683286	-0.1719713
-0.368603	-0.17819786	0.54132086	0.18458529	0.32635432	-0.17803937	0.22828858	-0.07719828	0.2669228	-0.15878396	-0.3668425	0.109660625	0.066863984	-0.22842039	-0.11696217	-0.30136862
0.033858065	-0.026452053	0.46981296	0.04447757	0.60121065	-0.11247225	0.12049125	0.08208585	0.38524356	-0.10577725	-0.3947535	0.4883729	0.012380339	-0.49405387	0.04834383	-0.34598717
-0.018874984	0.1739704	0.40567592	0.21902306	0.3918262	-0.12315515	0.1067944	0.13609697	-0.10336641	-0.026201464	-0.49111545	-0.053636577	0.08621039	-0.022501422	-0.12408629	-0.27864322
0.21208338	-0.4142025	0.03409041	-0.5774967	0.249901	0.2067463	-0.104450315	-0.15334252	0.8963908	0.14417493	0.063764945	0.53610575	-0.39635527	-0.8028503	0.5583698	0.13718
-0.917584	-0.76015025	-0.5929283	-0.83172053	-0.9783513	0.91750795	-0.80330455	-0.7244066	0.6718395	0.9924174	0.5594398	-1.0257597	-0.85271317	0.6903544	0.8491703	0.7445911
-0.21888222	0.27458006	0.3266434	0.39389163	0.12837532	-0.15647379	0.08718806	0.15766892	-0.34901538	0.010767211	-0.47184074	-0.41275126	0.20293276	0.42404354	-0.3080241	-0.18058401
0.9287387	-1.0507073	-0.9325262	-0.487733	-0.6428291	-0.34510326	1.0333863	-0.7795381	0.7636749	-1.0177372	1.0853457	1.1291364	0.5340782	-0.7165352	0.14123696	0.44078055
0.0824431	0.26399463	0.10385922	0.32439813	-0.016086016	-0.012532955	-0.091818824	0.22846249	-0.2969853	0.0017467065	-0.25865662	-0.23966993	0.21851633	0.27975526	-0.22564101	0.016345708
0.51972425	0.37855124	0.3979161	-0.2178085	0.39899945	0.42958045	-0.41142347	0.4327276	0.024674086	0.3455437	-0.39220154	0.33831567	-0.059160594	-0.2621059	0.33258823	0.2541012
0.3709956	0.15475282	-0.20483585	0.11553066	-0.20910387	0.010170344	-0.089579135	0.096283585	-0.18685412	-0.22439826	0.1809709	0.054078963	0.28138024	0.16805854	-0.16852574	0.1984107
-1.0924053	-0.80026495	0.9220665	0.6934468	1.006139	-0.8457764	1.0251391	-0.6544496	0.37376526	-0.9821738	-0.82573247	0.6884924	0.6864419	-0.27664644	-0.71479213	-0.8652707
0.3704654	0.7151559	0.10982085	0.6982608	0.01812943	0.044905823	-0.1925391	0.556312	-0.67712075	-0.41718176	-0.4228999	-0.44970477	0.592453	0.62361276	-0.67595345	0.097611606
0.6706079	0.78300446	-0.27677804	0.12790921	-0.29131562	0.63138604	-0.80793655	0.77219576	-0.5947702	0.3157445	-0.25250697	-0.51271635	0.21895167	0.41345674	-0.0010694443	0.7939568
-0.20393993	-0.08517118	-0.10874351	0.1960618	-0.15333088	-0.16791704	0.2516268	-0.046173044	-0.077905305	-0.23627007	0.22598712	-0.08314284	0.22277202	0.28656083	-0.22967665	0.042235855
0.010934779	0.2595074	0.009536302	0.33807415	-0.19008103	0.026205396	-0.010669916	0.20232093	-0.39015552	-0.069751434	0.02622488	-0.28653964	0.21163684	0.4564955	-0.25905737	0.16704844
0.44795913	-0.0136778345	0.1412413	-0.12447303	0.31147054	0.15759031	-0.11527059	0.14206012	0.24916756	-0.05052055	-0.08590816	0.4622525	-0.052849133	-0.3829464	0.1239515	0.01578363
0.032174442	0.13283485	0.19911636	0.032774713	0.11626932	0.12450026	-0.10728102	0.14204104	-0.062449284	0.090272926	-0.18020639	-0.08228413	-0.0016647833	0.04684423	0.049206026	0.055599645
0.14197034	-0.16941185	-0.13034259	-0.18737783	-0.056155127	0.15557893	-0.045698885	0.011804961	0.16426134	0.008705477	0.1298084	0.20805852	-0.053265944	-0.19204232	0.1319492	0.30377948
-0.17555717	0.20603651	-0.44801012	-0.049159396	-0.71231943	0.52415913	-0.4194136	0.052321117	-0.34990183	0.4828244	0.3175917	-0.7159736	-0.13813837	0.65433604	0.103424415	0.60915875
-0.80346984	-0.39598787	0.091447175	-0.14588201	-0.27819118	0.026812874	0.1505795	-0.46589604	0.24187359	0.42879024	-0.105070174	-0.7165542	-0.3664963	0.63822395	0.11754515	-0.0029478762
-0.49142736	-0.44116783	0.46827847	0.07810593	0.23077765	-0.27733892	0.34685418	-0.35431102	0.3183387	0.009283573	-0.3660023	-0.13305306	-0.14235939	-0.15438989	-0.09777247	-0.39587328
0.6545323	0.2450387	-0.4192381	-0.12829773	-0.17698371	0.41835633	-0.4241505	0.32801777	-0.12707359	0.07964942	0.208349	0.17742735	0.07107754	-0.04799676	0.19179824	0.6438742
0.02204063	0.19122347	-0.2721022	-0.023030039	-0.4271708	0.31716657	-0.3147757	0.1820058	-0.181806	0.19157977	0.20309225	-0.30184758	-0.010015783	0.39414862	0.047890753	0.48671368
-0.05354835	0.071470276	0.08822582	0.0076636556	0.016070992	-0.011766743	-0.022432275	-0.0021039483	-0.01283051	-0.014880547	-0.05229874	-0.051468484	0.022330165	0.012048511	-0.011872745	-0.00094632007
0.6227907	0.849719	-0.06253576	0.7887985	-0.15384439	0.22037828	-0.4804718	0.72094125	-0.9387766	-0.3504547	-0.29875323	-0.58304024	0.67700773	0.8455866	-0.73545855	0.4407168
0.6430135	0.16155006	0.17772187	-0.4435869	0.45747596	0.4361257	-0.4329398	0.38740593	0.32174408	0.32885996	-0.24892332	0.45532566	-0.26931474	-0.5177109	0.4971418	0.47501558
-0.014898185	-0.0048854128	0.42319798	0.04166924	0.40196207	-0.031119073	0.08442886	0.093796395	0.24018699	-0.008226064	-0.342201	0.171994	-0.056181487	-0.2732991	0.07460789	-0.2503458
0.1588072	0.29781294	-0.009787371	-0.09100494	-0.24005638	0.426023	-0.51032984	0.29885533	-0.196229	0.39955023	-0.16243897	-0.39430803	-0.14736414	0.19822614	0.2570966	0.36765552
-0.4783628	-0.015193922	-0.32261968	-0.04733591	-0.51585335	0.075347394	0.06899808	-0.17453536	-0.15205847	0.27728516	0.29640728	-0.5027328	-0.1647965	0.56063086	-0.049504425	0.25830233
0.50309193	0.6337188	0.46379727	-0.05244406	0.4483932	0.51888347	-0.5634966	0.6023395	-0.15098295	0.37978604	-0.63540196	-0.010896552	-0.06971682	-0.09570982	0.23698425	0.3145686
0.5895721	-1.1357633	-0.9405187	-0.41886294	-0.43047637	-0.63547605	1.1871542	-0.8555665	0.8151195	-1.0794406	1.1211684	1.2428534	0.65933967	-0.74712664	-0.14102523	0.22279373
